{
  "entry": {
    "id": "node_conv2d_8__003__vivado_tool_error__20260613T140521Z",
    "created_at": "2026-06-13T14:05:21.785Z",
    "network_id": "resnet8",
    "model_name": "resnet8",
    "module_id": "node_conv2d_8",
    "stage": "vivado_tool_error",
    "attempt_index": 3,
    "parent_id": "node_conv2d_8:attempt_2",
    "op_type": "conv2d",
    "contract_id": "flat-bus",
    "spec_hash": "conv2d_64x64x3x3_s8x8_st1x1_p1x1_d1x1_g1_mp4_i512_o512",
    "generated_by": "Surgeon",
    "module_attempt": 3,
    "rtl_path": "output/resnet8/failure_corpus/visible/node_conv2d_8/node_conv2d_8__003__vivado_tool_error__20260613T140521Z/node_conv2d_8.v",
    "failure_path": "output/resnet8/failure_corpus/visible/node_conv2d_8/node_conv2d_8__003__vivado_tool_error__20260613T140521Z/failure.json",
    "score": {
      "syntax_ok": true,
      "sim_completed": false,
      "timing_delta_cycles": 0,
      "timing_abs_delta_cycles": 0,
      "outputs_received": 512,
      "outputs_expected": 512,
      "output_completion_ratio": 1,
      "first_mismatch_index": 409,
      "max_error": 1,
      "mean_error": 0.0010986328125,
      "exact_match_count": 32732,
      "mismatch_count": 36,
      "signed_error_sum": 6,
      "positive_error_count": 21,
      "negative_error_count": 15,
      "axi_out_of_range_reads": null
    },
    "summary": {
      "status": "fail",
      "status_class": "tb_setup_error",
      "failure_class": null,
      "failure_category": "toolchain_infra",
      "timing_pass": true,
      "timing_actual_cycles": 1132,
      "timing_expected_cycles": 1132,
      "timing_delta_cycles": 0,
      "outputs_received": 512,
      "outputs_expected": 512,
      "output_completion_ratio": 1,
      "first_mismatch": {
        "flat_index": 409,
        "vector_index": 0,
        "output_index": 6,
        "channel_index": 25,
        "expected": 5,
        "got": 6
      },
      "error_stats": {
        "max_error": 1,
        "mean_error": 0.0010986328125,
        "exact_match_count": 32732,
        "mismatch_count": 36,
        "signed_error_sum": 6,
        "positive_error_count": 21,
        "negative_error_count": 15
      },
      "gap": {
        "missing_index_start": -1,
        "missing_index_end": -1,
        "output_gap_histogram": [
          0,
          0,
          0,
          0
        ],
        "last_valid_out_cycle": 10134,
        "simulation_end_cycle": 10135
      },
      "axi_weight_trace": {
        "model_enabled": null,
        "model_status": null,
        "ar_handshakes": null,
        "r_beats": null,
        "completed_bursts": null,
        "out_of_range_reads": null
      },
      "per_vector": [
        {
          "vector_idx": 0,
          "outputs_received": 64,
          "exact_match_count": 4090,
          "mismatch_count": 6,
          "max_error": 1,
          "mean_error": 0.00146484375,
          "actual_cycles": 1132,
          "first_mismatch_output_index": 6
        },
        {
          "vector_idx": 1,
          "outputs_received": 64,
          "exact_match_count": 4091,
          "mismatch_count": 5,
          "max_error": 1,
          "mean_error": 0.001220703125,
          "actual_cycles": 1132,
          "first_mismatch_output_index": 21
        },
        {
          "vector_idx": 2,
          "outputs_received": 64,
          "exact_match_count": 4093,
          "mismatch_count": 3,
          "max_error": 1,
          "mean_error": 0.000732421875,
          "actual_cycles": 1132,
          "first_mismatch_output_index": 14
        },
        {
          "vector_idx": 3,
          "outputs_received": 64,
          "exact_match_count": 4094,
          "mismatch_count": 2,
          "max_error": 1,
          "mean_error": 0.00048828125,
          "actual_cycles": 1132,
          "first_mismatch_output_index": 52
        },
        {
          "vector_idx": 4,
          "outputs_received": 64,
          "exact_match_count": 4091,
          "mismatch_count": 5,
          "max_error": 1,
          "mean_error": 0.001220703125,
          "actual_cycles": 1132,
          "first_mismatch_output_index": 13
        },
        {
          "vector_idx": 5,
          "outputs_received": 64,
          "exact_match_count": 4091,
          "mismatch_count": 5,
          "max_error": 1,
          "mean_error": 0.001220703125,
          "actual_cycles": 1132,
          "first_mismatch_output_index": 3
        },
        {
          "vector_idx": 6,
          "outputs_received": 64,
          "exact_match_count": 4089,
          "mismatch_count": 7,
          "max_error": 1,
          "mean_error": 0.001708984375,
          "actual_cycles": 1132,
          "first_mismatch_output_index": 2
        },
        {
          "vector_idx": 7,
          "outputs_received": 64,
          "exact_match_count": 4093,
          "mismatch_count": 3,
          "max_error": 1,
          "mean_error": 0.000732421875,
          "actual_cycles": 1132,
          "first_mismatch_output_index": 1
        }
      ]
    },
    "shape": {
      "input_shape": [
        1,
        64,
        8,
        8
      ],
      "output_shape": [
        1,
        64,
        8,
        8
      ],
      "weight_shape": [
        64,
        64,
        3,
        3
      ],
      "input_width_bits": 512,
      "output_width_bits": 512,
      "stride": [
        1,
        1
      ],
      "padding": [
        1,
        1
      ],
      "dilation": [
        1,
        1
      ],
      "groups": 1,
      "mac_parallelism": 4,
      "io_mode": "packed_full",
      "channel_tile": null
    },
    "runtime_layer_signature": {
      "version": 1,
      "op_type": "conv2d",
      "contract_id": "flat-bus",
      "kernel": [
        3,
        3
      ],
      "stride": [
        1,
        1
      ],
      "padding": [
        1,
        1
      ],
      "dilation": [
        1,
        1
      ],
      "groups": 1,
      "input_channels": 64,
      "output_channels": 64,
      "input_width_bits": 512,
      "output_width_bits": 512,
      "bus_width_bits": 512,
      "channel_tile": null,
      "spatial_shape": [
        8,
        8
      ],
      "spatial_family": "tiny",
      "quantization_family": "int8_symmetric_per_tensor"
    },
    "signature_hash": "e3e572c7b47be2347af309e662d8ffab",
    "exact_reference_key": "conv2d|flat-bus|k3x3|s1x1|d1x1|g1|bus512|tilenone|c64-64|int8_symmetric_per_tensor",
    "applicability": {
      "networks": [
        "resnet8"
      ],
      "signature_hashes": [
        "e3e572c7b47be2347af309e662d8ffab"
      ],
      "exact_reference_keys": [
        "conv2d|flat-bus|k3x3|s1x1|d1x1|g1|bus512|tilenone|c64-64|int8_symmetric_per_tensor"
      ],
      "exact_reference_key": "conv2d|flat-bus|k3x3|s1x1|d1x1|g1|bus512|tilenone|c64-64|int8_symmetric_per_tensor",
      "op_type": "conv2d",
      "contract_id": "flat-bus",
      "kernel": [
        3,
        3
      ],
      "stride": [
        1,
        1
      ],
      "padding": [
        1,
        1
      ],
      "dilation": [
        1,
        1
      ],
      "groups": 1,
      "bus_width_bits": 512,
      "channel_tile": null,
      "input_channels": 64,
      "output_channels": 64,
      "quantization_family": "int8_symmetric_per_tensor",
      "spatial_family": "tiny"
    },
    "contraindications": []
  },
  "layer_ir": {
    "module_id": "node_conv2d_8",
    "op_type": "conv2d",
    "input_shape": [
      1,
      64,
      8,
      8
    ],
    "output_shape": [
      1,
      64,
      8,
      8
    ],
    "weights_path": "D:/RTL_LLM_CLAUDE/nn2rtl-repo/output/resnet8/weights/node_conv2d_8_weights.hex",
    "bias_path": "D:/RTL_LLM_CLAUDE/nn2rtl-repo/output/resnet8/weights/node_conv2d_8_bias.hex",
    "weight_shape": [
      64,
      64,
      3,
      3
    ],
    "num_weights": 36864,
    "scale_factor": 0.30067238604677415,
    "zero_point": 0,
    "quantization_family": "int8_symmetric_per_tensor",
    "pipeline_latency_cycles": 1132,
    "clock_period_ns": 20,
    "input_width_bits": 512,
    "output_width_bits": 512,
    "clock_signal": "clk",
    "reset_signal": "rst_n",
    "valid_in_signal": "valid_in",
    "valid_out_signal": "valid_out",
    "ready_in_signal": "ready_in",
    "data_in_signal": "data_in",
    "data_out_signal": "data_out",
    "golden_inputs_path": "D:/RTL_LLM_CLAUDE/nn2rtl-repo/output/resnet8/goldens/node_conv2d_8.goldin",
    "golden_outputs_path": "D:/RTL_LLM_CLAUDE/nn2rtl-repo/output/resnet8/goldens/node_conv2d_8.goldout",
    "stride": [
      1,
      1
    ],
    "padding": [
      1,
      1
    ],
    "dilation": [
      1,
      1
    ],
    "groups": 1,
    "mac_parallelism": 4,
    "weight_bank_paths": [
      "D:/RTL_LLM_CLAUDE/nn2rtl-repo/output/resnet8/weights/node_conv2d_8_weights_bank0.hex",
      "D:/RTL_LLM_CLAUDE/nn2rtl-repo/output/resnet8/weights/node_conv2d_8_weights_bank1.hex",
      "D:/RTL_LLM_CLAUDE/nn2rtl-repo/output/resnet8/weights/node_conv2d_8_weights_bank2.hex",
      "D:/RTL_LLM_CLAUDE/nn2rtl-repo/output/resnet8/weights/node_conv2d_8_weights_bank3.hex"
    ],
    "contract_id": "flat-bus",
    "io_mode": "packed_full",
    "base_layer_signature": {
      "version": 1,
      "op_type": "conv2d",
      "contract_id": "flat-bus",
      "kernel": [
        3,
        3
      ],
      "stride": [
        1,
        1
      ],
      "padding": [
        1,
        1
      ],
      "dilation": [
        1,
        1
      ],
      "groups": 1,
      "input_channels": 64,
      "output_channels": 64,
      "input_width_bits": 512,
      "output_width_bits": 512,
      "bus_width_bits": 512,
      "channel_tile": null,
      "spatial_shape": [
        8,
        8
      ],
      "spatial_family": "tiny",
      "quantization_family": "int8_symmetric_per_tensor"
    },
    "runtime_layer_signature": {
      "version": 1,
      "op_type": "conv2d",
      "contract_id": "flat-bus",
      "kernel": [
        3,
        3
      ],
      "stride": [
        1,
        1
      ],
      "padding": [
        1,
        1
      ],
      "dilation": [
        1,
        1
      ],
      "groups": 1,
      "input_channels": 64,
      "output_channels": 64,
      "input_width_bits": 512,
      "output_width_bits": 512,
      "bus_width_bits": 512,
      "channel_tile": null,
      "spatial_shape": [
        8,
        8
      ],
      "spatial_family": "tiny",
      "quantization_family": "int8_symmetric_per_tensor"
    },
    "signature_hash": "e3e572c7b47be2347af309e662d8ffab",
    "exact_reference_key": "conv2d|flat-bus|k3x3|s1x1|d1x1|g1|bus512|tilenone|c64-64|int8_symmetric_per_tensor",
    "weight_bits": 8,
    "activation_bits": 8,
    "scale_factor_per_oc": [
      0.0029710516657522716,
      0.0026821284346451963,
      0.0032789467338239986,
      0.0021969061538339323,
      0.0028845833695453587,
      0.003447890198533202,
      0.0027968496494887125,
      0.0042037901130873075,
      0.002680180034745563,
      0.003183421934375646,
      0.00321613085870395,
      0.003524486844601891,
      0.0027629254254242183,
      0.0026102118126527605,
      0.0032520429659083547,
      0.002793953651822428,
      0.003159682146118806,
      0.004351976314306987,
      0.0028833792707283964,
      0.002740505945521326,
      0.002734660745822427,
      0.0028025453169159237,
      0.0028789462269211115,
      0.0028887629925551206,
      0.0033680721680946686,
      0.003594408022833938,
      0.003866039554860496,
      0.0029202157337920548,
      0.003926814622497284,
      0.0026558507981143727,
      0.002915771209042561,
      0.002920938193082232,
      0.003254212863985713,
      0.0036200166844638955,
      0.002218653858606152,
      0.0042483305683956776,
      0.0038143134298446687,
      0.0029127265191735315,
      0.0025836356716245224,
      0.0032566440235040532,
      0.00301748563645606,
      0.003041650499597586,
      0.003599044643348184,
      0.0027913766003311484,
      0.0038442610475604,
      0.0030187384592716623,
      0.0023510289822557067,
      0.002435054918025052,
      0.002921489278308228,
      0.0027394651001021054,
      0.0030213236314293817,
      0.0032232580036084435,
      0.002391566229032149,
      0.003310265344053183,
      0.003073171286418828,
      0.002909538737561369,
      0.002915812652443703,
      0.0037822701201414614,
      0.002658989015658953,
      0.003444874631054164,
      0.002676915526836693,
      0.0025540277217843666,
      0.0028497000667720056,
      0.00359442090389105
    ],
    "weight_scale_per_oc": [
      0.009881358593702316,
      0.00892043486237526,
      0.010905380360782146,
      0.007306644227355719,
      0.009593775495886803,
      0.011467265896499157,
      0.009301983751356602,
      0.013981297612190247,
      0.008913954719901085,
      0.010587676428258419,
      0.010696462355554104,
      0.011722017079591751,
      0.009189155884087086,
      0.008681248873472214,
      0.010815901681780815,
      0.009292352013289928,
      0.010508720763027668,
      0.014474146999418736,
      0.009589770808815956,
      0.009114591404795647,
      0.009095150977373123,
      0.00932092685252428,
      0.009575027041137218,
      0.009607676416635513,
      0.011201800778508186,
      0.011954566463828087,
      0.012857980094850063,
      0.009712284430861473,
      0.013060110621154308,
      0.008833038620650768,
      0.009697502478957176,
      0.009714687243103981,
      0.01082311850041151,
      0.012039737775921822,
      0.007378974463790655,
      0.014129433780908585,
      0.012685945257544518,
      0.009687376208603382,
      0.008592859841883183,
      0.010831204243004322,
      0.010035792365670204,
      0.010116161778569221,
      0.01196998730301857,
      0.009283781051635742,
      0.012785547412931919,
      0.010039959102869034,
      0.007819238118827343,
      0.00809869822114706,
      0.009716520085930824,
      0.009111129678785801,
      0.010048557072877884,
      0.010720166377723217,
      0.007954060100018978,
      0.011009542271494865,
      0.010220996104180813,
      0.00967677403241396,
      0.00969764031469822,
      0.012579373084008694,
      0.008843475952744484,
      0.011457236483693123,
      0.008903097361326218,
      0.00849438738077879,
      0.009477757848799229,
      0.01195460930466652
    ]
  },
  "module": {
    "module_id": "node_conv2d_8",
    "spec_hash": "conv2d_64x64x3x3_s8x8_st1x1_p1x1_d1x1_g1_mp4_i512_o512",
    "generated_by": "Surgeon",
    "attempt": 3,
    "rtl_path": "output/resnet8/failure_corpus/visible/node_conv2d_8/node_conv2d_8__003__vivado_tool_error__20260613T140521Z/node_conv2d_8.v"
  },
  "verif_result": {
    "module_id": "node_conv2d_8",
    "status": "fail",
    "timing_pass": true,
    "timing_actual_cycles": 1132,
    "timing_expected_cycles": 1132,
    "expected": [
      6,
      3,
      5,
      1,
      5,
      10,
      -3,
      21,
      25,
      2,
      17,
      6,
      -22,
      -3,
      20,
      1,
      -21,
      22,
      10,
      37,
      18,
      17,
      33,
      26,
      -12,
      24,
      -5,
      41,
      0,
      6,
      17,
      10,
      4,
      10,
      24,
      -5,
      8,
      -28,
      0,
      1,
      -28,
      24,
      2,
      -4,
      13,
      5,
      -2,
      7,
      -9,
      -5,
      19,
      -20,
      16,
      -2,
      1,
      34,
      5,
      4,
      22,
      12,
      -13,
      -26,
      16,
      12,
      14,
      11,
      0,
      -22,
      52,
      5,
      1,
      7,
      20,
      -27,
      28,
      9,
      -24,
      -7,
      17,
      7,
      -12,
      7,
      9,
      18,
      22,
      2,
      -2,
      -19,
      -3,
      23,
      25,
      17,
      -15,
      -7,
      5,
      -13,
      -6,
      -14,
      0,
      15,
      -11,
      -43,
      11,
      -4,
      3,
      -10,
      3,
      -4,
      -13,
      -8,
      -22,
      11,
      13,
      4,
      16,
      58,
      12,
      -3,
      -39,
      23,
      1,
      -28,
      -1,
      28,
      9,
      -16,
      19,
      4,
      7,
      17,
      6,
      -21,
      51,
      23,
      10,
      15,
      15,
      0,
      37,
      -13,
      6,
      -13,
      16,
      -8,
      -6,
      -9,
      -2,
      3,
      -7,
      36,
      -14,
      -15,
      15,
      28,
      -4,
      13,
      -20,
      -15,
      31,
      7,
      -23,
      31,
      15,
      36,
      21,
      1,
      19,
      -22,
      -1,
      -3,
      -42,
      -12,
      -12,
      3,
      -36,
      0,
      17,
      -28,
      -5,
      25,
      12,
      39,
      -11,
      11,
      11,
      14,
      10,
      -24,
      -22,
      -21,
      6,
      7,
      27,
      17,
      -2,
      -51,
      25,
      4,
      4,
      -3,
      28,
      21,
      29,
      -11,
      3,
      -6,
      35,
      1,
      -3,
      28,
      -18,
      -3,
      -3,
      27,
      3,
      3,
      -12,
      22,
      17,
      -6,
      -5,
      -18,
      17,
      -1,
      -2,
      26,
      -7,
      31,
      25,
      -16,
      24,
      -10,
      20,
      -20,
      -25,
      16,
      14,
      0,
      -33,
      -30,
      54,
      -24,
      4,
      58,
      0,
      60,
      -6,
      -7,
      29,
      12,
      -2,
      -24,
      -36,
      -28,
      18,
      10,
      26,
      21,
      7,
      -36,
      15,
      -10,
      1,
      4,
      28,
      9,
      35,
      6,
      3,
      -17,
      26,
      3,
      12,
      1,
      -2,
      10,
      -7,
      6,
      6,
      17,
      13,
      -20,
      3,
      -15,
      4,
      -34,
      3,
      17,
      -39,
      33,
      -6,
      21,
      11,
      -35,
      10,
      -12,
      41,
      -16,
      -42,
      -23,
      37,
      13,
      -26,
      -31,
      54,
      -6,
      -30,
      33,
      21,
      22,
      -7,
      -3,
      30,
      13,
      26,
      -36,
      -36,
      -9,
      54,
      9,
      22,
      12,
      27,
      -11,
      0,
      -30,
      14,
      10,
      13,
      16,
      30,
      10,
      -7,
      -19,
      46,
      26,
      -3,
      36,
      9,
      28,
      -5,
      -2,
      -2,
      31,
      -7,
      -20,
      10,
      -1,
      -15,
      1,
      -12,
      8,
      -6,
      27,
      9,
      2,
      -16,
      -13,
      -8,
      -10,
      37,
      -1,
      7,
      -20,
      19,
      27,
      -18,
      -6,
      43,
      4,
      -34,
      -9,
      24,
      15,
      -3,
      -25,
      34,
      -3,
      37,
      -29,
      1,
      8,
      62,
      6,
      28,
      13,
      36,
      -6,
      -3,
      -51,
      6,
      19,
      9,
      29,
      24,
      15,
      -14,
      -19,
      20,
      21,
      9,
      -5,
      5,
      27,
      -21,
      -29,
      4,
      21,
      -16,
      5,
      -1,
      -24,
      -10,
      1,
      -19,
      12,
      -20,
      11,
      8,
      -23,
      -1,
      -32,
      -1,
      0,
      4,
      -7,
      19,
      -20,
      14,
      22,
      -19,
      6,
      43,
      13,
      -24,
      -26,
      -18,
      0,
      3,
      -4,
      2,
      -14,
      20,
      -38,
      5,
      7,
      46,
      23,
      -4,
      15,
      0,
      3,
      12,
      -6,
      16,
      14,
      -7,
      14,
      41,
      30,
      -2,
      2,
      20,
      6,
      0,
      21,
      6,
      3,
      -7,
      -9,
      15,
      13,
      -20,
      10,
      14,
      -7,
      8,
      -6,
      -17,
      3,
      -2,
      4,
      -20,
      -6,
      3,
      -17,
      25,
      12,
      23,
      3,
      -8,
      -7,
      4,
      8,
      -24,
      6,
      21,
      12,
      21,
      4,
      -4,
      13,
      9,
      10,
      4,
      -12,
      14,
      -5,
      16,
      -11,
      -6,
      -1,
      2,
      5,
      15,
      12,
      -16,
      -16,
      5,
      5,
      -4,
      24,
      1,
      1,
      8,
      -11,
      -13,
      -14,
      -6,
      -10,
      -5,
      5,
      11,
      2,
      0,
      -5,
      4,
      -3,
      -2,
      -8,
      17,
      -19,
      6,
      9,
      -1,
      -15,
      7,
      4,
      -6,
      14,
      -5,
      2,
      14,
      14,
      -18,
      20,
      -23,
      -17,
      -21,
      2,
      -11,
      -14,
      5,
      7,
      -13,
      5,
      10,
      -3,
      -1,
      1,
      9,
      -8,
      1,
      -26,
      -11,
      10,
      3,
      -9,
      -13,
      -4,
      -10,
      -13,
      1,
      -15,
      -2,
      21,
      3,
      0,
      -16,
      -8,
      -29,
      -16,
      -17,
      -13,
      -10,
      8,
      -15,
      5,
      -9,
      -8,
      -3,
      -3,
      -6,
      -2,
      17,
      -24,
      -18,
      -10,
      2,
      -31,
      0,
      -16,
      -16,
      3,
      -9,
      3,
      -5,
      9,
      -10,
      7,
      -8,
      -25,
      -14,
      -23,
      -11,
      -13,
      0,
      -1,
      -16,
      -2,
      3,
      -11,
      -7,
      11,
      9,
      2,
      -15,
      -2,
      -9,
      4,
      6,
      -11,
      -3,
      -5,
      1,
      -11,
      -7,
      -11,
      1,
      9,
      -7,
      2,
      -16,
      -8,
      -8,
      7,
      -30,
      -14,
      -19,
      13,
      -3,
      -13,
      -4,
      1,
      -12,
      -6,
      3,
      -12,
      3,
      -11,
      -9,
      -1,
      1,
      -6,
      5,
      -13,
      -11,
      5,
      -12,
      -1,
      -5,
      4,
      -5,
      1,
      -11,
      -16,
      1,
      -6,
      -11,
      -15,
      -15,
      -5,
      -16,
      -1,
      15,
      2,
      2,
      -2,
      5,
      4,
      -14,
      -21,
      -11,
      19,
      5,
      1,
      9,
      -8,
      2,
      -5,
      -7,
      -2,
      -8,
      12,
      -12,
      -10,
      3,
      -14,
      -4,
      11,
      -20,
      -13,
      -8,
      14,
      -5,
      -15,
      -7,
      -3,
      2,
      -6,
      2,
      -11,
      10,
      -2,
      -2,
      -2,
      8,
      -18,
      8,
      3,
      -8,
      19,
      -10,
      -6,
      -2,
      6,
      14,
      6,
      -7,
      -20,
      12,
      2,
      -1,
      -8,
      -15,
      0,
      -22,
      0,
      5,
      -6,
      -15,
      4,
      1,
      -3,
      6,
      -20,
      -12,
      20,
      4,
      -1,
      16,
      -8,
      9,
      -6,
      -10,
      16,
      0,
      8,
      5,
      -9,
      -6,
      -19,
      20,
      12,
      -22,
      -4,
      -13,
      -2,
      -19,
      -38,
      1,
      -3,
      -8,
      -6,
      -4,
      -6,
      3,
      -3,
      10,
      3,
      21,
      -23,
      30,
      4,
      5,
      21,
      -11,
      -1,
      1,
      13,
      12,
      -2,
      -7,
      -15,
      4,
      17,
      1,
      3,
      -8,
      1,
      -17,
      -14,
      23,
      -1,
      -11,
      14,
      -4,
      -4,
      -7,
      -6,
      -2,
      18,
      3,
      -6,
      3,
      -19,
      18,
      10,
      4,
      22,
      0,
      17,
      2,
      -17,
      -2,
      4,
      10,
      6,
      -3,
      -9,
      -2,
      6,
      -18,
      -12,
      -1,
      4,
      6,
      -2,
      7,
      19,
      16,
      -4,
      7,
      -9,
      27,
      -23,
      24,
      15,
      5,
      14,
      -3,
      1,
      6,
      0,
      4,
      11,
      -4,
      -15,
      -3,
      3,
      4,
      3,
      -1,
      -1,
      -13,
      -1,
      18,
      -25,
      -14,
      0,
      -21,
      -14,
      -6,
      5,
      -6,
      4,
      -12,
      -7,
      5,
      -8,
      30,
      0,
      -2,
      14,
      -11,
      23,
      -3,
      -7,
      -8,
      1,
      1,
      26,
      -8,
      -3,
      2,
      -13,
      -7,
      -2,
      7,
      -8,
      -9,
      -3,
      14,
      13,
      6,
      -4,
      -6,
      13,
      8,
      2,
      14,
      30,
      -2,
      2,
      -14,
      15,
      8,
      2,
      -5,
      4,
      -9,
      -7,
      -15,
      -2,
      1,
      20,
      1,
      6,
      1,
      4,
      8,
      -24,
      1,
      6,
      -10,
      -12,
      -3,
      0,
      -3,
      -5,
      -5,
      -20,
      -1,
      13,
      6,
      -3,
      4,
      13,
      2,
      10,
      -9,
      13,
      -4,
      10,
      -11,
      9,
      15,
      9,
      -1,
      -9,
      6,
      12,
      12,
      13,
      -8,
      -7,
      3,
      9,
      -3,
      -6,
      7,
      3,
      8,
      12,
      21,
      0,
      3,
      -1,
      -3,
      14
    ],
    "got": [
      6,
      3,
      5,
      1,
      5,
      10,
      -3,
      21,
      25,
      2,
      17,
      6,
      -22,
      -3,
      20,
      1,
      -21,
      22,
      10,
      37,
      18,
      17,
      33,
      26,
      -12,
      24,
      -5,
      41,
      0,
      6,
      17,
      10,
      4,
      10,
      24,
      -5,
      8,
      -28,
      0,
      1,
      -28,
      24,
      2,
      -4,
      13,
      5,
      -2,
      7,
      -9,
      -5,
      19,
      -20,
      16,
      -2,
      1,
      34,
      5,
      4,
      22,
      12,
      -13,
      -26,
      16,
      12,
      14,
      11,
      0,
      -22,
      52,
      5,
      1,
      7,
      20,
      -27,
      28,
      9,
      -24,
      -7,
      17,
      7,
      -12,
      7,
      9,
      18,
      22,
      2,
      -2,
      -19,
      -3,
      23,
      25,
      17,
      -15,
      -7,
      5,
      -13,
      -6,
      -14,
      0,
      15,
      -11,
      -43,
      11,
      -4,
      3,
      -10,
      3,
      -4,
      -13,
      -8,
      -22,
      11,
      13,
      4,
      16,
      58,
      12,
      -3,
      -39,
      23,
      1,
      -28,
      -1,
      28,
      9,
      -16,
      19,
      4,
      7,
      17,
      6,
      -21,
      51,
      23,
      10,
      15,
      15,
      0,
      37,
      -13,
      6,
      -13,
      16,
      -8,
      -6,
      -9,
      -2,
      3,
      -7,
      36,
      -14,
      -15,
      15,
      28,
      -4,
      13,
      -20,
      -15,
      31,
      7,
      -23,
      31,
      15,
      36,
      21,
      1,
      19,
      -22,
      -1,
      -3,
      -42,
      -12,
      -12,
      3,
      -36,
      0,
      17,
      -28,
      -5,
      25,
      12,
      39,
      -11,
      11,
      11,
      14,
      10,
      -24,
      -22,
      -21,
      6,
      7,
      27,
      17,
      -2,
      -51,
      25,
      4,
      4,
      -3,
      28,
      21,
      29,
      -11,
      3,
      -6,
      35,
      1,
      -3,
      28,
      -18,
      -3,
      -3,
      27,
      3,
      3,
      -12,
      22,
      17,
      -6,
      -5,
      -18,
      17,
      -1,
      -2,
      26,
      -7,
      31,
      25,
      -16,
      24,
      -10,
      20,
      -20,
      -25,
      16,
      14,
      0,
      -33,
      -30,
      54,
      -24,
      4,
      58,
      0,
      60,
      -6,
      -7,
      29,
      12,
      -2,
      -24,
      -36,
      -28,
      18,
      10,
      26,
      21,
      7,
      -36,
      15,
      -10,
      1,
      4,
      28,
      9,
      35,
      6,
      3,
      -17,
      26,
      3,
      12,
      1,
      -2,
      10,
      -7,
      6,
      6,
      17,
      13,
      -20,
      3,
      -15,
      4,
      -34,
      3,
      17,
      -39,
      33,
      -6,
      21,
      11,
      -35,
      10,
      -12,
      41,
      -16,
      -42,
      -23,
      37,
      13,
      -26,
      -31,
      54,
      -6,
      -30,
      33,
      21,
      22,
      -7,
      -3,
      30,
      13,
      26,
      -36,
      -36,
      -9,
      54,
      9,
      22,
      12,
      27,
      -11,
      0,
      -30,
      14,
      10,
      13,
      16,
      30,
      10,
      -7,
      -19,
      46,
      26,
      -3,
      36,
      9,
      28,
      -5,
      -2,
      -2,
      31,
      -7,
      -20,
      10,
      -1,
      -15,
      1,
      -12,
      8,
      -6,
      27,
      9,
      2,
      -16,
      -13,
      -8,
      -10,
      37,
      -1,
      7,
      -20,
      19,
      27,
      -18,
      -6,
      43,
      4,
      -34,
      -9,
      24,
      15,
      -3,
      -25,
      34,
      -3,
      37,
      -29,
      1,
      8,
      62,
      6,
      28,
      13,
      36,
      -6,
      -3,
      -51,
      6,
      19,
      9,
      29,
      24,
      15,
      -14,
      -19,
      20,
      21,
      9,
      -5,
      5,
      27,
      -21,
      -29,
      4,
      21,
      -16,
      6,
      -1,
      -24,
      -10,
      1,
      -19,
      12,
      -20,
      11,
      8,
      -23,
      -1,
      -32,
      -1,
      0,
      4,
      -7,
      19,
      -20,
      14,
      22,
      -19,
      6,
      43,
      13,
      -24,
      -26,
      -18,
      0,
      3,
      -4,
      2,
      -14,
      20,
      -38,
      5,
      7,
      46,
      23,
      -4,
      15,
      0,
      3,
      12,
      -6,
      16,
      14,
      -7,
      14,
      41,
      30,
      -2,
      2,
      20,
      6,
      0,
      21,
      6,
      3,
      -7,
      -9,
      15,
      13,
      -20,
      10,
      14,
      -7,
      8,
      -6,
      -17,
      3,
      -2,
      4,
      -20,
      -6,
      3,
      -17,
      25,
      12,
      23,
      3,
      -8,
      -7,
      4,
      8,
      -24,
      6,
      21,
      12,
      21,
      4,
      -4,
      13,
      9,
      10,
      4,
      -12,
      14,
      -5,
      16,
      -11,
      -6,
      -1,
      2,
      5,
      15,
      12,
      -16,
      -16,
      5,
      5,
      -4,
      24,
      1,
      1,
      8,
      -11,
      -13,
      -14,
      -6,
      -10,
      -5,
      5,
      11,
      2,
      0,
      -5,
      4,
      -3,
      -2,
      -8,
      17,
      -19,
      6,
      9,
      -1,
      -15,
      7,
      4,
      -6,
      14,
      -5,
      2,
      14,
      14,
      -18,
      20,
      -23,
      -17,
      -21,
      2,
      -11,
      -14,
      5,
      7,
      -13,
      5,
      10,
      -3,
      -1,
      1,
      9,
      -8,
      1,
      -26,
      -11,
      10,
      3,
      -9,
      -13,
      -4,
      -10,
      -13,
      1,
      -15,
      -2,
      21,
      3,
      0,
      -16,
      -8,
      -29,
      -16,
      -17,
      -13,
      -10,
      8,
      -15,
      5,
      -9,
      -8,
      -3,
      -3,
      -6,
      -2,
      17,
      -24,
      -18,
      -10,
      2,
      -31,
      0,
      -16,
      -16,
      3,
      -9,
      3,
      -5,
      9,
      -10,
      7,
      -8,
      -25,
      -14,
      -23,
      -11,
      -13,
      0,
      -1,
      -16,
      -2,
      3,
      -11,
      -7,
      11,
      9,
      2,
      -15,
      -2,
      -9,
      4,
      6,
      -11,
      -3,
      -5,
      1,
      -11,
      -7,
      -11,
      1,
      9,
      -7,
      2,
      -16,
      -8,
      -8,
      7,
      -30,
      -14,
      -19,
      13,
      -3,
      -13,
      -4,
      1,
      -12,
      -6,
      3,
      -12,
      3,
      -11,
      -9,
      -1,
      1,
      -6,
      5,
      -13,
      -11,
      5,
      -12,
      -1,
      -5,
      4,
      -5,
      1,
      -11,
      -16,
      1,
      -6,
      -11,
      -15,
      -15,
      -5,
      -16,
      -1,
      15,
      2,
      2,
      -2,
      5,
      4,
      -14,
      -21,
      -11,
      19,
      5,
      1,
      9,
      -8,
      2,
      -5,
      -7,
      -2,
      -8,
      12,
      -12,
      -10,
      3,
      -14,
      -4,
      11,
      -20,
      -13,
      -8,
      14,
      -5,
      -15,
      -7,
      -3,
      2,
      -6,
      2,
      -11,
      10,
      -2,
      -2,
      -2,
      8,
      -18,
      8,
      3,
      -8,
      19,
      -10,
      -6,
      -2,
      6,
      14,
      6,
      -7,
      -20,
      12,
      2,
      -1,
      -8,
      -15,
      0,
      -22,
      0,
      5,
      -6,
      -15,
      4,
      1,
      -3,
      6,
      -20,
      -12,
      20,
      4,
      -1,
      16,
      -8,
      9,
      -6,
      -10,
      16,
      0,
      8,
      5,
      -9,
      -6,
      -19,
      20,
      12,
      -22,
      -4,
      -13,
      -2,
      -19,
      -38,
      1,
      -3,
      -8,
      -6,
      -4,
      -6,
      3,
      -3,
      10,
      3,
      21,
      -23,
      30,
      4,
      5,
      21,
      -11,
      -1,
      1,
      13,
      12,
      -2,
      -7,
      -15,
      4,
      17,
      1,
      3,
      -8,
      1,
      -17,
      -14,
      23,
      -1,
      -11,
      14,
      -4,
      -4,
      -7,
      -6,
      -2,
      18,
      3,
      -6,
      3,
      -19,
      18,
      10,
      4,
      22,
      0,
      17,
      2,
      -17,
      -2,
      4,
      10,
      6,
      -3,
      -9,
      -2,
      6,
      -18,
      -12,
      -1,
      4,
      6,
      -2,
      7,
      19,
      16,
      -4,
      7,
      -9,
      27,
      -23,
      24,
      15,
      5,
      14,
      -3,
      1,
      6,
      0,
      4,
      11,
      -4,
      -15,
      -3,
      3,
      4,
      3,
      -1,
      -1,
      -13,
      -1,
      18,
      -25,
      -14,
      0,
      -21,
      -14,
      -6,
      5,
      -6,
      4,
      -12,
      -7,
      5,
      -8,
      30,
      0,
      -2,
      14,
      -11,
      23,
      -3,
      -7,
      -8,
      1,
      1,
      26,
      -8,
      -3,
      2,
      -13,
      -7,
      -2,
      7,
      -8,
      -9,
      -3,
      14,
      13,
      6,
      -4,
      -6,
      13,
      8,
      2,
      14,
      30,
      -2,
      2,
      -14,
      15,
      8,
      2,
      -5,
      4,
      -9,
      -7,
      -15,
      -2,
      1,
      20,
      1,
      6,
      1,
      4,
      8,
      -24,
      1,
      6,
      -10,
      -12,
      -3,
      0,
      -3,
      -5,
      -5,
      -20,
      -1,
      13,
      6,
      -3,
      4,
      13,
      2,
      10,
      -9,
      13,
      -4,
      10,
      -11,
      9,
      15,
      9,
      -1,
      -9,
      6,
      12,
      12,
      13,
      -8,
      -7,
      3,
      9,
      -3,
      -6,
      7,
      3,
      8,
      12,
      21,
      0,
      3,
      -1,
      -3,
      14
    ],
    "max_error": 1,
    "mean_error": 0.0010986328125,
    "sample_count": 32768,
    "failure_class": null,
    "verilator_stderr": "",
    "status_class": "tb_setup_error",
    "outputs_expected": 512,
    "outputs_received": 512,
    "missing_index_start": -1,
    "missing_index_end": -1,
    "last_valid_out_cycle": 10134,
    "simulation_end_cycle": 10135,
    "output_gap_histogram": [
      0,
      0,
      0,
      0
    ],
    "first_mismatch_index": 409,
    "first_mismatch_expected": 5,
    "first_mismatch_got": 6,
    "first_mismatch_vector_index": 0,
    "first_mismatch_output_index": 6,
    "first_mismatch_channel_index": 25,
    "exact_match_count": 32732,
    "mismatch_count": 36,
    "signed_error_sum": 6,
    "positive_error_count": 21,
    "negative_error_count": 15,
    "first_valid_in_cycle": 7,
    "first_valid_out_cycle": 1139,
    "per_vector": [
      {
        "vector_idx": 0,
        "outputs_received": 64,
        "exact_match_count": 4090,
        "mismatch_count": 6,
        "max_error": 1,
        "mean_error": 0.00146484375,
        "actual_cycles": 1132,
        "first_mismatch_output_index": 6
      },
      {
        "vector_idx": 1,
        "outputs_received": 64,
        "exact_match_count": 4091,
        "mismatch_count": 5,
        "max_error": 1,
        "mean_error": 0.001220703125,
        "actual_cycles": 1132,
        "first_mismatch_output_index": 21
      },
      {
        "vector_idx": 2,
        "outputs_received": 64,
        "exact_match_count": 4093,
        "mismatch_count": 3,
        "max_error": 1,
        "mean_error": 0.000732421875,
        "actual_cycles": 1132,
        "first_mismatch_output_index": 14
      },
      {
        "vector_idx": 3,
        "outputs_received": 64,
        "exact_match_count": 4094,
        "mismatch_count": 2,
        "max_error": 1,
        "mean_error": 0.00048828125,
        "actual_cycles": 1132,
        "first_mismatch_output_index": 52
      },
      {
        "vector_idx": 4,
        "outputs_received": 64,
        "exact_match_count": 4091,
        "mismatch_count": 5,
        "max_error": 1,
        "mean_error": 0.001220703125,
        "actual_cycles": 1132,
        "first_mismatch_output_index": 13
      },
      {
        "vector_idx": 5,
        "outputs_received": 64,
        "exact_match_count": 4091,
        "mismatch_count": 5,
        "max_error": 1,
        "mean_error": 0.001220703125,
        "actual_cycles": 1132,
        "first_mismatch_output_index": 3
      },
      {
        "vector_idx": 6,
        "outputs_received": 64,
        "exact_match_count": 4089,
        "mismatch_count": 7,
        "max_error": 1,
        "mean_error": 0.001708984375,
        "actual_cycles": 1132,
        "first_mismatch_output_index": 2
      },
      {
        "vector_idx": 7,
        "outputs_received": 64,
        "exact_match_count": 4093,
        "mismatch_count": 3,
        "max_error": 1,
        "mean_error": 0.000732421875,
        "actual_cycles": 1132,
        "first_mismatch_output_index": 1
      }
    ],
    "fix_hint": "Vivado failed before producing a structured synthesis report.\n\nThis is infrastructure, not a module-local RTL bug. Check NN2RTL_VIVADO_BIN, PATH, and Windows/WSL path access.\n\nspawn vivado ENOENT",
    "failure_category": "toolchain_infra",
    "violated_constraint": "toolchain_or_testbench_setup",
    "classifier_reason": "Deterministic evidence says the RTL did not receive a trustworthy compiler/simulation verdict because the local toolchain or testbench setup failed."
  },
  "logs": {
    "iverilog_stderr": "",
    "verilator_stderr": "",
    "fix_hint": "Vivado failed before producing a structured synthesis report.\n\nThis is infrastructure, not a module-local RTL bug. Check NN2RTL_VIVADO_BIN, PATH, and Windows/WSL path access.\n\nspawn vivado ENOENT",
    "verif_result_json": {
      "module_id": "node_conv2d_8",
      "status": "fail",
      "timing_pass": true,
      "timing_actual_cycles": 1132,
      "timing_expected_cycles": 1132,
      "expected": [
        6,
        3,
        5,
        1,
        5,
        10,
        -3,
        21,
        25,
        2,
        17,
        6,
        -22,
        -3,
        20,
        1,
        -21,
        22,
        10,
        37,
        18,
        17,
        33,
        26,
        -12,
        24,
        -5,
        41,
        0,
        6,
        17,
        10,
        4,
        10,
        24,
        -5,
        8,
        -28,
        0,
        1,
        -28,
        24,
        2,
        -4,
        13,
        5,
        -2,
        7,
        -9,
        -5,
        19,
        -20,
        16,
        -2,
        1,
        34,
        5,
        4,
        22,
        12,
        -13,
        -26,
        16,
        12,
        14,
        11,
        0,
        -22,
        52,
        5,
        1,
        7,
        20,
        -27,
        28,
        9,
        -24,
        -7,
        17,
        7,
        -12,
        7,
        9,
        18,
        22,
        2,
        -2,
        -19,
        -3,
        23,
        25,
        17,
        -15,
        -7,
        5,
        -13,
        -6,
        -14,
        0,
        15,
        -11,
        -43,
        11,
        -4,
        3,
        -10,
        3,
        -4,
        -13,
        -8,
        -22,
        11,
        13,
        4,
        16,
        58,
        12,
        -3,
        -39,
        23,
        1,
        -28,
        -1,
        28,
        9,
        -16,
        19,
        4,
        7,
        17,
        6,
        -21,
        51,
        23,
        10,
        15,
        15,
        0,
        37,
        -13,
        6,
        -13,
        16,
        -8,
        -6,
        -9,
        -2,
        3,
        -7,
        36,
        -14,
        -15,
        15,
        28,
        -4,
        13,
        -20,
        -15,
        31,
        7,
        -23,
        31,
        15,
        36,
        21,
        1,
        19,
        -22,
        -1,
        -3,
        -42,
        -12,
        -12,
        3,
        -36,
        0,
        17,
        -28,
        -5,
        25,
        12,
        39,
        -11,
        11,
        11,
        14,
        10,
        -24,
        -22,
        -21,
        6,
        7,
        27,
        17,
        -2,
        -51,
        25,
        4,
        4,
        -3,
        28,
        21,
        29,
        -11,
        3,
        -6,
        35,
        1,
        -3,
        28,
        -18,
        -3,
        -3,
        27,
        3,
        3,
        -12,
        22,
        17,
        -6,
        -5,
        -18,
        17,
        -1,
        -2,
        26,
        -7,
        31,
        25,
        -16,
        24,
        -10,
        20,
        -20,
        -25,
        16,
        14,
        0,
        -33,
        -30,
        54,
        -24,
        4,
        58,
        0,
        60,
        -6,
        -7,
        29,
        12,
        -2,
        -24,
        -36,
        -28,
        18,
        10,
        26,
        21,
        7,
        -36,
        15,
        -10,
        1,
        4,
        28,
        9,
        35,
        6,
        3,
        -17,
        26,
        3,
        12,
        1,
        -2,
        10,
        -7,
        6,
        6,
        17,
        13,
        -20,
        3,
        -15,
        4,
        -34,
        3,
        17,
        -39,
        33,
        -6,
        21,
        11,
        -35,
        10,
        -12,
        41,
        -16,
        -42,
        -23,
        37,
        13,
        -26,
        -31,
        54,
        -6,
        -30,
        33,
        21,
        22,
        -7,
        -3,
        30,
        13,
        26,
        -36,
        -36,
        -9,
        54,
        9,
        22,
        12,
        27,
        -11,
        0,
        -30,
        14,
        10,
        13,
        16,
        30,
        10,
        -7,
        -19,
        46,
        26,
        -3,
        36,
        9,
        28,
        -5,
        -2,
        -2,
        31,
        -7,
        -20,
        10,
        -1,
        -15,
        1,
        -12,
        8,
        -6,
        27,
        9,
        2,
        -16,
        -13,
        -8,
        -10,
        37,
        -1,
        7,
        -20,
        19,
        27,
        -18,
        -6,
        43,
        4,
        -34,
        -9,
        24,
        15,
        -3,
        -25,
        34,
        -3,
        37,
        -29,
        1,
        8,
        62,
        6,
        28,
        13,
        36,
        -6,
        -3,
        -51,
        6,
        19,
        9,
        29,
        24,
        15,
        -14,
        -19,
        20,
        21,
        9,
        -5,
        5,
        27,
        -21,
        -29,
        4,
        21,
        -16,
        5,
        -1,
        -24,
        -10,
        1,
        -19,
        12,
        -20,
        11,
        8,
        -23,
        -1,
        -32,
        -1,
        0,
        4,
        -7,
        19,
        -20,
        14,
        22,
        -19,
        6,
        43,
        13,
        -24,
        -26,
        -18,
        0,
        3,
        -4,
        2,
        -14,
        20,
        -38,
        5,
        7,
        46,
        23,
        -4,
        15,
        0,
        3,
        12,
        -6,
        16,
        14,
        -7,
        14,
        41,
        30,
        -2,
        2,
        20,
        6,
        0,
        21,
        6,
        3,
        -7,
        -9,
        15,
        13,
        -20,
        10,
        14,
        -7,
        8,
        -6,
        -17,
        3,
        -2,
        4,
        -20,
        -6,
        3,
        -17,
        25,
        12,
        23,
        3,
        -8,
        -7,
        4,
        8,
        -24,
        6,
        21,
        12,
        21,
        4,
        -4,
        13,
        9,
        10,
        4,
        -12,
        14,
        -5,
        16,
        -11,
        -6,
        -1,
        2,
        5,
        15,
        12,
        -16,
        -16,
        5,
        5,
        -4,
        24,
        1,
        1,
        8,
        -11,
        -13,
        -14,
        -6,
        -10,
        -5,
        5,
        11,
        2,
        0,
        -5,
        4,
        -3,
        -2,
        -8,
        17,
        -19,
        6,
        9,
        -1,
        -15,
        7,
        4,
        -6,
        14,
        -5,
        2,
        14,
        14,
        -18,
        20,
        -23,
        -17,
        -21,
        2,
        -11,
        -14,
        5,
        7,
        -13,
        5,
        10,
        -3,
        -1,
        1,
        9,
        -8,
        1,
        -26,
        -11,
        10,
        3,
        -9,
        -13,
        -4,
        -10,
        -13,
        1,
        -15,
        -2,
        21,
        3,
        0,
        -16,
        -8,
        -29,
        -16,
        -17,
        -13,
        -10,
        8,
        -15,
        5,
        -9,
        -8,
        -3,
        -3,
        -6,
        -2,
        17,
        -24,
        -18,
        -10,
        2,
        -31,
        0,
        -16,
        -16,
        3,
        -9,
        3,
        -5,
        9,
        -10,
        7,
        -8,
        -25,
        -14,
        -23,
        -11,
        -13,
        0,
        -1,
        -16,
        -2,
        3,
        -11,
        -7,
        11,
        9,
        2,
        -15,
        -2,
        -9,
        4,
        6,
        -11,
        -3,
        -5,
        1,
        -11,
        -7,
        -11,
        1,
        9,
        -7,
        2,
        -16,
        -8,
        -8,
        7,
        -30,
        -14,
        -19,
        13,
        -3,
        -13,
        -4,
        1,
        -12,
        -6,
        3,
        -12,
        3,
        -11,
        -9,
        -1,
        1,
        -6,
        5,
        -13,
        -11,
        5,
        -12,
        -1,
        -5,
        4,
        -5,
        1,
        -11,
        -16,
        1,
        -6,
        -11,
        -15,
        -15,
        -5,
        -16,
        -1,
        15,
        2,
        2,
        -2,
        5,
        4,
        -14,
        -21,
        -11,
        19,
        5,
        1,
        9,
        -8,
        2,
        -5,
        -7,
        -2,
        -8,
        12,
        -12,
        -10,
        3,
        -14,
        -4,
        11,
        -20,
        -13,
        -8,
        14,
        -5,
        -15,
        -7,
        -3,
        2,
        -6,
        2,
        -11,
        10,
        -2,
        -2,
        -2,
        8,
        -18,
        8,
        3,
        -8,
        19,
        -10,
        -6,
        -2,
        6,
        14,
        6,
        -7,
        -20,
        12,
        2,
        -1,
        -8,
        -15,
        0,
        -22,
        0,
        5,
        -6,
        -15,
        4,
        1,
        -3,
        6,
        -20,
        -12,
        20,
        4,
        -1,
        16,
        -8,
        9,
        -6,
        -10,
        16,
        0,
        8,
        5,
        -9,
        -6,
        -19,
        20,
        12,
        -22,
        -4,
        -13,
        -2,
        -19,
        -38,
        1,
        -3,
        -8,
        -6,
        -4,
        -6,
        3,
        -3,
        10,
        3,
        21,
        -23,
        30,
        4,
        5,
        21,
        -11,
        -1,
        1,
        13,
        12,
        -2,
        -7,
        -15,
        4,
        17,
        1,
        3,
        -8,
        1,
        -17,
        -14,
        23,
        -1,
        -11,
        14,
        -4,
        -4,
        -7,
        -6,
        -2,
        18,
        3,
        -6,
        3,
        -19,
        18,
        10,
        4,
        22,
        0,
        17,
        2,
        -17,
        -2,
        4,
        10,
        6,
        -3,
        -9,
        -2,
        6,
        -18,
        -12,
        -1,
        4,
        6,
        -2,
        7,
        19,
        16,
        -4,
        7,
        -9,
        27,
        -23,
        24,
        15,
        5,
        14,
        -3,
        1,
        6,
        0,
        4,
        11,
        -4,
        -15,
        -3,
        3,
        4,
        3,
        -1,
        -1,
        -13,
        -1,
        18,
        -25,
        -14,
        0,
        -21,
        -14,
        -6,
        5,
        -6,
        4,
        -12,
        -7,
        5,
        -8,
        30,
        0,
        -2,
        14,
        -11,
        23,
        -3,
        -7,
        -8,
        1,
        1,
        26,
        -8,
        -3,
        2,
        -13,
        -7,
        -2,
        7,
        -8,
        -9,
        -3,
        14,
        13,
        6,
        -4,
        -6,
        13,
        8,
        2,
        14,
        30,
        -2,
        2,
        -14,
        15,
        8,
        2,
        -5,
        4,
        -9,
        -7,
        -15,
        -2,
        1,
        20,
        1,
        6,
        1,
        4,
        8,
        -24,
        1,
        6,
        -10,
        -12,
        -3,
        0,
        -3,
        -5,
        -5,
        -20,
        -1,
        13,
        6,
        -3,
        4,
        13,
        2,
        10,
        -9,
        13,
        -4,
        10,
        -11,
        9,
        15,
        9,
        -1,
        -9,
        6,
        12,
        12,
        13,
        -8,
        -7,
        3,
        9,
        -3,
        -6,
        7,
        3,
        8,
        12,
        21,
        0,
        3,
        -1,
        -3,
        14
      ],
      "got": [
        6,
        3,
        5,
        1,
        5,
        10,
        -3,
        21,
        25,
        2,
        17,
        6,
        -22,
        -3,
        20,
        1,
        -21,
        22,
        10,
        37,
        18,
        17,
        33,
        26,
        -12,
        24,
        -5,
        41,
        0,
        6,
        17,
        10,
        4,
        10,
        24,
        -5,
        8,
        -28,
        0,
        1,
        -28,
        24,
        2,
        -4,
        13,
        5,
        -2,
        7,
        -9,
        -5,
        19,
        -20,
        16,
        -2,
        1,
        34,
        5,
        4,
        22,
        12,
        -13,
        -26,
        16,
        12,
        14,
        11,
        0,
        -22,
        52,
        5,
        1,
        7,
        20,
        -27,
        28,
        9,
        -24,
        -7,
        17,
        7,
        -12,
        7,
        9,
        18,
        22,
        2,
        -2,
        -19,
        -3,
        23,
        25,
        17,
        -15,
        -7,
        5,
        -13,
        -6,
        -14,
        0,
        15,
        -11,
        -43,
        11,
        -4,
        3,
        -10,
        3,
        -4,
        -13,
        -8,
        -22,
        11,
        13,
        4,
        16,
        58,
        12,
        -3,
        -39,
        23,
        1,
        -28,
        -1,
        28,
        9,
        -16,
        19,
        4,
        7,
        17,
        6,
        -21,
        51,
        23,
        10,
        15,
        15,
        0,
        37,
        -13,
        6,
        -13,
        16,
        -8,
        -6,
        -9,
        -2,
        3,
        -7,
        36,
        -14,
        -15,
        15,
        28,
        -4,
        13,
        -20,
        -15,
        31,
        7,
        -23,
        31,
        15,
        36,
        21,
        1,
        19,
        -22,
        -1,
        -3,
        -42,
        -12,
        -12,
        3,
        -36,
        0,
        17,
        -28,
        -5,
        25,
        12,
        39,
        -11,
        11,
        11,
        14,
        10,
        -24,
        -22,
        -21,
        6,
        7,
        27,
        17,
        -2,
        -51,
        25,
        4,
        4,
        -3,
        28,
        21,
        29,
        -11,
        3,
        -6,
        35,
        1,
        -3,
        28,
        -18,
        -3,
        -3,
        27,
        3,
        3,
        -12,
        22,
        17,
        -6,
        -5,
        -18,
        17,
        -1,
        -2,
        26,
        -7,
        31,
        25,
        -16,
        24,
        -10,
        20,
        -20,
        -25,
        16,
        14,
        0,
        -33,
        -30,
        54,
        -24,
        4,
        58,
        0,
        60,
        -6,
        -7,
        29,
        12,
        -2,
        -24,
        -36,
        -28,
        18,
        10,
        26,
        21,
        7,
        -36,
        15,
        -10,
        1,
        4,
        28,
        9,
        35,
        6,
        3,
        -17,
        26,
        3,
        12,
        1,
        -2,
        10,
        -7,
        6,
        6,
        17,
        13,
        -20,
        3,
        -15,
        4,
        -34,
        3,
        17,
        -39,
        33,
        -6,
        21,
        11,
        -35,
        10,
        -12,
        41,
        -16,
        -42,
        -23,
        37,
        13,
        -26,
        -31,
        54,
        -6,
        -30,
        33,
        21,
        22,
        -7,
        -3,
        30,
        13,
        26,
        -36,
        -36,
        -9,
        54,
        9,
        22,
        12,
        27,
        -11,
        0,
        -30,
        14,
        10,
        13,
        16,
        30,
        10,
        -7,
        -19,
        46,
        26,
        -3,
        36,
        9,
        28,
        -5,
        -2,
        -2,
        31,
        -7,
        -20,
        10,
        -1,
        -15,
        1,
        -12,
        8,
        -6,
        27,
        9,
        2,
        -16,
        -13,
        -8,
        -10,
        37,
        -1,
        7,
        -20,
        19,
        27,
        -18,
        -6,
        43,
        4,
        -34,
        -9,
        24,
        15,
        -3,
        -25,
        34,
        -3,
        37,
        -29,
        1,
        8,
        62,
        6,
        28,
        13,
        36,
        -6,
        -3,
        -51,
        6,
        19,
        9,
        29,
        24,
        15,
        -14,
        -19,
        20,
        21,
        9,
        -5,
        5,
        27,
        -21,
        -29,
        4,
        21,
        -16,
        6,
        -1,
        -24,
        -10,
        1,
        -19,
        12,
        -20,
        11,
        8,
        -23,
        -1,
        -32,
        -1,
        0,
        4,
        -7,
        19,
        -20,
        14,
        22,
        -19,
        6,
        43,
        13,
        -24,
        -26,
        -18,
        0,
        3,
        -4,
        2,
        -14,
        20,
        -38,
        5,
        7,
        46,
        23,
        -4,
        15,
        0,
        3,
        12,
        -6,
        16,
        14,
        -7,
        14,
        41,
        30,
        -2,
        2,
        20,
        6,
        0,
        21,
        6,
        3,
        -7,
        -9,
        15,
        13,
        -20,
        10,
        14,
        -7,
        8,
        -6,
        -17,
        3,
        -2,
        4,
        -20,
        -6,
        3,
        -17,
        25,
        12,
        23,
        3,
        -8,
        -7,
        4,
        8,
        -24,
        6,
        21,
        12,
        21,
        4,
        -4,
        13,
        9,
        10,
        4,
        -12,
        14,
        -5,
        16,
        -11,
        -6,
        -1,
        2,
        5,
        15,
        12,
        -16,
        -16,
        5,
        5,
        -4,
        24,
        1,
        1,
        8,
        -11,
        -13,
        -14,
        -6,
        -10,
        -5,
        5,
        11,
        2,
        0,
        -5,
        4,
        -3,
        -2,
        -8,
        17,
        -19,
        6,
        9,
        -1,
        -15,
        7,
        4,
        -6,
        14,
        -5,
        2,
        14,
        14,
        -18,
        20,
        -23,
        -17,
        -21,
        2,
        -11,
        -14,
        5,
        7,
        -13,
        5,
        10,
        -3,
        -1,
        1,
        9,
        -8,
        1,
        -26,
        -11,
        10,
        3,
        -9,
        -13,
        -4,
        -10,
        -13,
        1,
        -15,
        -2,
        21,
        3,
        0,
        -16,
        -8,
        -29,
        -16,
        -17,
        -13,
        -10,
        8,
        -15,
        5,
        -9,
        -8,
        -3,
        -3,
        -6,
        -2,
        17,
        -24,
        -18,
        -10,
        2,
        -31,
        0,
        -16,
        -16,
        3,
        -9,
        3,
        -5,
        9,
        -10,
        7,
        -8,
        -25,
        -14,
        -23,
        -11,
        -13,
        0,
        -1,
        -16,
        -2,
        3,
        -11,
        -7,
        11,
        9,
        2,
        -15,
        -2,
        -9,
        4,
        6,
        -11,
        -3,
        -5,
        1,
        -11,
        -7,
        -11,
        1,
        9,
        -7,
        2,
        -16,
        -8,
        -8,
        7,
        -30,
        -14,
        -19,
        13,
        -3,
        -13,
        -4,
        1,
        -12,
        -6,
        3,
        -12,
        3,
        -11,
        -9,
        -1,
        1,
        -6,
        5,
        -13,
        -11,
        5,
        -12,
        -1,
        -5,
        4,
        -5,
        1,
        -11,
        -16,
        1,
        -6,
        -11,
        -15,
        -15,
        -5,
        -16,
        -1,
        15,
        2,
        2,
        -2,
        5,
        4,
        -14,
        -21,
        -11,
        19,
        5,
        1,
        9,
        -8,
        2,
        -5,
        -7,
        -2,
        -8,
        12,
        -12,
        -10,
        3,
        -14,
        -4,
        11,
        -20,
        -13,
        -8,
        14,
        -5,
        -15,
        -7,
        -3,
        2,
        -6,
        2,
        -11,
        10,
        -2,
        -2,
        -2,
        8,
        -18,
        8,
        3,
        -8,
        19,
        -10,
        -6,
        -2,
        6,
        14,
        6,
        -7,
        -20,
        12,
        2,
        -1,
        -8,
        -15,
        0,
        -22,
        0,
        5,
        -6,
        -15,
        4,
        1,
        -3,
        6,
        -20,
        -12,
        20,
        4,
        -1,
        16,
        -8,
        9,
        -6,
        -10,
        16,
        0,
        8,
        5,
        -9,
        -6,
        -19,
        20,
        12,
        -22,
        -4,
        -13,
        -2,
        -19,
        -38,
        1,
        -3,
        -8,
        -6,
        -4,
        -6,
        3,
        -3,
        10,
        3,
        21,
        -23,
        30,
        4,
        5,
        21,
        -11,
        -1,
        1,
        13,
        12,
        -2,
        -7,
        -15,
        4,
        17,
        1,
        3,
        -8,
        1,
        -17,
        -14,
        23,
        -1,
        -11,
        14,
        -4,
        -4,
        -7,
        -6,
        -2,
        18,
        3,
        -6,
        3,
        -19,
        18,
        10,
        4,
        22,
        0,
        17,
        2,
        -17,
        -2,
        4,
        10,
        6,
        -3,
        -9,
        -2,
        6,
        -18,
        -12,
        -1,
        4,
        6,
        -2,
        7,
        19,
        16,
        -4,
        7,
        -9,
        27,
        -23,
        24,
        15,
        5,
        14,
        -3,
        1,
        6,
        0,
        4,
        11,
        -4,
        -15,
        -3,
        3,
        4,
        3,
        -1,
        -1,
        -13,
        -1,
        18,
        -25,
        -14,
        0,
        -21,
        -14,
        -6,
        5,
        -6,
        4,
        -12,
        -7,
        5,
        -8,
        30,
        0,
        -2,
        14,
        -11,
        23,
        -3,
        -7,
        -8,
        1,
        1,
        26,
        -8,
        -3,
        2,
        -13,
        -7,
        -2,
        7,
        -8,
        -9,
        -3,
        14,
        13,
        6,
        -4,
        -6,
        13,
        8,
        2,
        14,
        30,
        -2,
        2,
        -14,
        15,
        8,
        2,
        -5,
        4,
        -9,
        -7,
        -15,
        -2,
        1,
        20,
        1,
        6,
        1,
        4,
        8,
        -24,
        1,
        6,
        -10,
        -12,
        -3,
        0,
        -3,
        -5,
        -5,
        -20,
        -1,
        13,
        6,
        -3,
        4,
        13,
        2,
        10,
        -9,
        13,
        -4,
        10,
        -11,
        9,
        15,
        9,
        -1,
        -9,
        6,
        12,
        12,
        13,
        -8,
        -7,
        3,
        9,
        -3,
        -6,
        7,
        3,
        8,
        12,
        21,
        0,
        3,
        -1,
        -3,
        14
      ],
      "max_error": 1,
      "mean_error": 0.0010986328125,
      "sample_count": 32768,
      "failure_class": null,
      "verilator_stderr": "",
      "status_class": "tb_setup_error",
      "outputs_expected": 512,
      "outputs_received": 512,
      "missing_index_start": -1,
      "missing_index_end": -1,
      "last_valid_out_cycle": 10134,
      "simulation_end_cycle": 10135,
      "output_gap_histogram": [
        0,
        0,
        0,
        0
      ],
      "first_mismatch_index": 409,
      "first_mismatch_expected": 5,
      "first_mismatch_got": 6,
      "first_mismatch_vector_index": 0,
      "first_mismatch_output_index": 6,
      "first_mismatch_channel_index": 25,
      "exact_match_count": 32732,
      "mismatch_count": 36,
      "signed_error_sum": 6,
      "positive_error_count": 21,
      "negative_error_count": 15,
      "first_valid_in_cycle": 7,
      "first_valid_out_cycle": 1139,
      "per_vector": [
        {
          "vector_idx": 0,
          "outputs_received": 64,
          "exact_match_count": 4090,
          "mismatch_count": 6,
          "max_error": 1,
          "mean_error": 0.00146484375,
          "actual_cycles": 1132,
          "first_mismatch_output_index": 6
        },
        {
          "vector_idx": 1,
          "outputs_received": 64,
          "exact_match_count": 4091,
          "mismatch_count": 5,
          "max_error": 1,
          "mean_error": 0.001220703125,
          "actual_cycles": 1132,
          "first_mismatch_output_index": 21
        },
        {
          "vector_idx": 2,
          "outputs_received": 64,
          "exact_match_count": 4093,
          "mismatch_count": 3,
          "max_error": 1,
          "mean_error": 0.000732421875,
          "actual_cycles": 1132,
          "first_mismatch_output_index": 14
        },
        {
          "vector_idx": 3,
          "outputs_received": 64,
          "exact_match_count": 4094,
          "mismatch_count": 2,
          "max_error": 1,
          "mean_error": 0.00048828125,
          "actual_cycles": 1132,
          "first_mismatch_output_index": 52
        },
        {
          "vector_idx": 4,
          "outputs_received": 64,
          "exact_match_count": 4091,
          "mismatch_count": 5,
          "max_error": 1,
          "mean_error": 0.001220703125,
          "actual_cycles": 1132,
          "first_mismatch_output_index": 13
        },
        {
          "vector_idx": 5,
          "outputs_received": 64,
          "exact_match_count": 4091,
          "mismatch_count": 5,
          "max_error": 1,
          "mean_error": 0.001220703125,
          "actual_cycles": 1132,
          "first_mismatch_output_index": 3
        },
        {
          "vector_idx": 6,
          "outputs_received": 64,
          "exact_match_count": 4089,
          "mismatch_count": 7,
          "max_error": 1,
          "mean_error": 0.001708984375,
          "actual_cycles": 1132,
          "first_mismatch_output_index": 2
        },
        {
          "vector_idx": 7,
          "outputs_received": 64,
          "exact_match_count": 4093,
          "mismatch_count": 3,
          "max_error": 1,
          "mean_error": 0.000732421875,
          "actual_cycles": 1132,
          "first_mismatch_output_index": 1
        }
      ],
      "fix_hint": "Vivado failed before producing a structured synthesis report.\n\nThis is infrastructure, not a module-local RTL bug. Check NN2RTL_VIVADO_BIN, PATH, and Windows/WSL path access.\n\nspawn vivado ENOENT",
      "failure_category": "toolchain_infra",
      "violated_constraint": "toolchain_or_testbench_setup",
      "classifier_reason": "Deterministic evidence says the RTL did not receive a trustworthy compiler/simulation verdict because the local toolchain or testbench setup failed."
    },
    "synthesis_tool_error": "Error: spawn vivado ENOENT\n    at ChildProcess._handle.onexit (node:internal/child_process:286:19)\n    at onErrorNT (node:internal/child_process:484:16)\n    at process.processTicksAndRejections (node:internal/process/task_queues:89:21)"
  }
}
