{
  "entry": {
    "id": "node_conv2d_7__001__foundry_assayer__20260613T131415Z",
    "created_at": "2026-06-13T13:14:15.887Z",
    "network_id": "resnet8",
    "model_name": "resnet8",
    "module_id": "node_conv2d_7",
    "stage": "foundry_assayer",
    "attempt_index": 1,
    "op_type": "conv2d",
    "contract_id": "flat-bus",
    "spec_hash": "conv2d_32x64x4x4_s16x16_st2x2_p1x1_d1x1_g1_mp4_i256_o512",
    "generated_by": "Foundry",
    "module_attempt": 1,
    "rtl_path": "output/resnet8/failure_corpus/visible/node_conv2d_7/node_conv2d_7__001__foundry_assayer__20260613T131415Z/node_conv2d_7.v",
    "failure_path": "output/resnet8/failure_corpus/visible/node_conv2d_7/node_conv2d_7__001__foundry_assayer__20260613T131415Z/failure.json",
    "score": {
      "syntax_ok": true,
      "sim_completed": true,
      "timing_delta_cycles": 0,
      "timing_abs_delta_cycles": 0,
      "outputs_received": 512,
      "outputs_expected": 512,
      "output_completion_ratio": 1,
      "first_mismatch_index": 0,
      "max_error": 128,
      "mean_error": 114.94732666015625,
      "exact_match_count": 1,
      "mismatch_count": 32767,
      "signed_error_sum": -1605712,
      "positive_error_count": 9122,
      "negative_error_count": 23645,
      "axi_out_of_range_reads": null
    },
    "summary": {
      "status": "fail",
      "status_class": "sim_completed_mismatch",
      "failure_class": null,
      "failure_category": "code_bug",
      "timing_pass": true,
      "timing_actual_cycles": 32902,
      "timing_expected_cycles": 32902,
      "timing_delta_cycles": 0,
      "outputs_received": 512,
      "outputs_expected": 512,
      "output_completion_ratio": 1,
      "first_mismatch": {
        "flat_index": 0,
        "vector_index": 0,
        "output_index": 0,
        "channel_index": 0,
        "expected": -28,
        "got": -128
      },
      "error_stats": {
        "max_error": 128,
        "mean_error": 114.94732666015625,
        "exact_match_count": 1,
        "mismatch_count": 32767,
        "signed_error_sum": -1605712,
        "positive_error_count": 9122,
        "negative_error_count": 23645
      },
      "gap": {
        "missing_index_start": -1,
        "missing_index_end": -1,
        "output_gap_histogram": [
          0,
          0,
          0,
          0
        ],
        "last_valid_out_cycle": 16829220,
        "simulation_end_cycle": 16829221
      },
      "axi_weight_trace": {
        "model_enabled": null,
        "model_status": null,
        "ar_handshakes": null,
        "r_beats": null,
        "completed_bursts": null,
        "out_of_range_reads": null
      },
      "per_vector": [
        {
          "vector_idx": 0,
          "outputs_received": 64,
          "exact_match_count": 0,
          "mismatch_count": 4096,
          "max_error": 128,
          "mean_error": 114.689208984375,
          "actual_cycles": 32902,
          "first_mismatch_output_index": 0
        },
        {
          "vector_idx": 1,
          "outputs_received": 64,
          "exact_match_count": 1,
          "mismatch_count": 4095,
          "max_error": 128,
          "mean_error": 114.83544921875,
          "actual_cycles": 32902,
          "first_mismatch_output_index": 0
        },
        {
          "vector_idx": 2,
          "outputs_received": 64,
          "exact_match_count": 0,
          "mismatch_count": 4096,
          "max_error": 128,
          "mean_error": 115.834228515625,
          "actual_cycles": 32902,
          "first_mismatch_output_index": 0
        },
        {
          "vector_idx": 3,
          "outputs_received": 64,
          "exact_match_count": 0,
          "mismatch_count": 4096,
          "max_error": 128,
          "mean_error": 114.380126953125,
          "actual_cycles": 32902,
          "first_mismatch_output_index": 0
        },
        {
          "vector_idx": 4,
          "outputs_received": 64,
          "exact_match_count": 0,
          "mismatch_count": 4096,
          "max_error": 128,
          "mean_error": 114.030029296875,
          "actual_cycles": 32902,
          "first_mismatch_output_index": 0
        },
        {
          "vector_idx": 5,
          "outputs_received": 64,
          "exact_match_count": 0,
          "mismatch_count": 4096,
          "max_error": 128,
          "mean_error": 116.417724609375,
          "actual_cycles": 32902,
          "first_mismatch_output_index": 0
        },
        {
          "vector_idx": 6,
          "outputs_received": 64,
          "exact_match_count": 0,
          "mismatch_count": 4096,
          "max_error": 128,
          "mean_error": 113.05322265625,
          "actual_cycles": 32902,
          "first_mismatch_output_index": 0
        },
        {
          "vector_idx": 7,
          "outputs_received": 64,
          "exact_match_count": 0,
          "mismatch_count": 4096,
          "max_error": 128,
          "mean_error": 116.338623046875,
          "actual_cycles": 32902,
          "first_mismatch_output_index": 0
        }
      ]
    },
    "shape": {
      "input_shape": [
        1,
        32,
        16,
        16
      ],
      "output_shape": [
        1,
        64,
        8,
        8
      ],
      "weight_shape": [
        64,
        32,
        4,
        4
      ],
      "input_width_bits": 256,
      "output_width_bits": 512,
      "stride": [
        2,
        2
      ],
      "padding": [
        1,
        1
      ],
      "dilation": [
        1,
        1
      ],
      "groups": 1,
      "mac_parallelism": 4,
      "io_mode": "packed_full",
      "channel_tile": null
    },
    "runtime_layer_signature": {
      "version": 1,
      "op_type": "conv2d",
      "contract_id": "flat-bus",
      "kernel": [
        4,
        4
      ],
      "stride": [
        2,
        2
      ],
      "padding": [
        1,
        1
      ],
      "dilation": [
        1,
        1
      ],
      "groups": 1,
      "input_channels": 32,
      "output_channels": 64,
      "input_width_bits": 256,
      "output_width_bits": 512,
      "bus_width_bits": 512,
      "channel_tile": null,
      "spatial_shape": [
        8,
        8
      ],
      "spatial_family": "tiny",
      "quantization_family": "int8_symmetric_per_tensor"
    },
    "signature_hash": "c447c4df23831fde8142cc9b3373871b",
    "exact_reference_key": "conv2d|flat-bus|k4x4|s2x2|d1x1|g1|bus512|tilenone|c32-64|int8_symmetric_per_tensor",
    "applicability": {
      "networks": [
        "resnet8"
      ],
      "signature_hashes": [
        "c447c4df23831fde8142cc9b3373871b"
      ],
      "exact_reference_keys": [
        "conv2d|flat-bus|k4x4|s2x2|d1x1|g1|bus512|tilenone|c32-64|int8_symmetric_per_tensor"
      ],
      "exact_reference_key": "conv2d|flat-bus|k4x4|s2x2|d1x1|g1|bus512|tilenone|c32-64|int8_symmetric_per_tensor",
      "op_type": "conv2d",
      "contract_id": "flat-bus",
      "kernel": [
        4,
        4
      ],
      "stride": [
        2,
        2
      ],
      "padding": [
        1,
        1
      ],
      "dilation": [
        1,
        1
      ],
      "groups": 1,
      "bus_width_bits": 512,
      "channel_tile": null,
      "input_channels": 32,
      "output_channels": 64,
      "quantization_family": "int8_symmetric_per_tensor",
      "spatial_family": "tiny"
    },
    "contraindications": []
  },
  "layer_ir": {
    "module_id": "node_conv2d_7",
    "op_type": "conv2d",
    "input_shape": [
      1,
      32,
      16,
      16
    ],
    "output_shape": [
      1,
      64,
      8,
      8
    ],
    "weights_path": "D:/RTL_LLM_CLAUDE/nn2rtl-repo/output/resnet8/weights/node_conv2d_7_weights.hex",
    "bias_path": "D:/RTL_LLM_CLAUDE/nn2rtl-repo/output/resnet8/weights/node_conv2d_7_bias.hex",
    "weight_shape": [
      64,
      32,
      4,
      4
    ],
    "num_weights": 32768,
    "scale_factor": 1.2727433159114343,
    "zero_point": 0,
    "quantization_family": "int8_symmetric_per_tensor",
    "pipeline_latency_cycles": 32902,
    "clock_period_ns": 20,
    "input_width_bits": 256,
    "output_width_bits": 512,
    "clock_signal": "clk",
    "reset_signal": "rst_n",
    "valid_in_signal": "valid_in",
    "valid_out_signal": "valid_out",
    "ready_in_signal": "ready_in",
    "data_in_signal": "data_in",
    "data_out_signal": "data_out",
    "golden_inputs_path": "D:/RTL_LLM_CLAUDE/nn2rtl-repo/output/resnet8/goldens/node_conv2d_7.goldin",
    "golden_outputs_path": "D:/RTL_LLM_CLAUDE/nn2rtl-repo/output/resnet8/goldens/node_conv2d_7.goldout",
    "stride": [
      2,
      2
    ],
    "padding": [
      1,
      1
    ],
    "dilation": [
      1,
      1
    ],
    "groups": 1,
    "mac_parallelism": 4,
    "weight_bank_paths": [
      "D:/RTL_LLM_CLAUDE/nn2rtl-repo/output/resnet8/weights/node_conv2d_7_weights_bank0.hex",
      "D:/RTL_LLM_CLAUDE/nn2rtl-repo/output/resnet8/weights/node_conv2d_7_weights_bank1.hex",
      "D:/RTL_LLM_CLAUDE/nn2rtl-repo/output/resnet8/weights/node_conv2d_7_weights_bank2.hex",
      "D:/RTL_LLM_CLAUDE/nn2rtl-repo/output/resnet8/weights/node_conv2d_7_weights_bank3.hex"
    ],
    "contract_id": "flat-bus",
    "io_mode": "packed_full",
    "base_layer_signature": {
      "version": 1,
      "op_type": "conv2d",
      "contract_id": "flat-bus",
      "kernel": [
        4,
        4
      ],
      "stride": [
        2,
        2
      ],
      "padding": [
        1,
        1
      ],
      "dilation": [
        1,
        1
      ],
      "groups": 1,
      "input_channels": 32,
      "output_channels": 64,
      "input_width_bits": 256,
      "output_width_bits": 512,
      "bus_width_bits": 512,
      "channel_tile": null,
      "spatial_shape": [
        8,
        8
      ],
      "spatial_family": "tiny",
      "quantization_family": "int8_symmetric_per_tensor"
    },
    "runtime_layer_signature": {
      "version": 1,
      "op_type": "conv2d",
      "contract_id": "flat-bus",
      "kernel": [
        4,
        4
      ],
      "stride": [
        2,
        2
      ],
      "padding": [
        1,
        1
      ],
      "dilation": [
        1,
        1
      ],
      "groups": 1,
      "input_channels": 32,
      "output_channels": 64,
      "input_width_bits": 256,
      "output_width_bits": 512,
      "bus_width_bits": 512,
      "channel_tile": null,
      "spatial_shape": [
        8,
        8
      ],
      "spatial_family": "tiny",
      "quantization_family": "int8_symmetric_per_tensor"
    },
    "signature_hash": "c447c4df23831fde8142cc9b3373871b",
    "exact_reference_key": "conv2d|flat-bus|k4x4|s2x2|d1x1|g1|bus512|tilenone|c32-64|int8_symmetric_per_tensor",
    "weight_bits": 8,
    "activation_bits": 8,
    "scale_factor_per_oc": [
      0.0008065624719369575,
      0.0008745997138478883,
      0.0015143957595530441,
      0.001738993696946485,
      0.0014865283953681204,
      0.00093792376912794,
      0.001219916866390095,
      0.0009196302041933861,
      0.0012688538491001464,
      0.0012035808815173828,
      0.0012933655310839963,
      0.0010510043178145342,
      0.0011869517485859093,
      0.001243055634594576,
      0.0011624811828953655,
      0.0008588052787122357,
      0.0012729191022152497,
      0.0011164855338666377,
      0.001117228368232369,
      0.0009837493226441795,
      0.0011308784590261353,
      0.0011808536466630204,
      0.0007898548846728512,
      0.0018798342629549388,
      0.001396684330905594,
      0.0012209452923066285,
      0.001456292584521939,
      0.0010208125865981135,
      0.0011246271526085488,
      0.001191735092207349,
      0.0010862212749904931,
      0.0009558949230562441,
      0.0012787288715011163,
      0.0009605315074397748,
      0.0010091960854462464,
      0.0008890430898105239,
      0.001273957899809374,
      0.001450446958864973,
      0.001253268181017713,
      0.0011196965311653206,
      0.0009356248127065402,
      0.0010278621417731306,
      0.001650629078208867,
      0.0012076902142622468,
      0.0014521762138529955,
      0.0012298547115239,
      0.001559903717484773,
      0.0014491078271211854,
      0.0017412421284813354,
      0.001832366946959496,
      0.0007368875421344482,
      0.0007951648131822553,
      0.0011539650725090173,
      0.0010021745338007243,
      0.001502832376207124,
      0.0011261204519313816,
      0.0012378717219678995,
      0.0011974630734070712,
      0.0010154070164046405,
      0.000999454413185729,
      0.0010380970613864992,
      0.0009485113257793937,
      0.0010945076527182063,
      0.0010289490935846404
    ],
    "weight_scale_per_oc": [
      0.0006337196682579815,
      0.0006871768273413181,
      0.001189867383800447,
      0.001366334967315197,
      0.0011679718736559153,
      0.0007369308150373399,
      0.0009584940271452069,
      0.0007225574809126556,
      0.0009969440288841724,
      0.0009456587722525001,
      0.0010162029648199677,
      0.000825778697617352,
      0.0009325931896455586,
      0.0009766742587089539,
      0.0009133665589615703,
      0.0006747670704498887,
      0.001000138116069138,
      0.0008772275759838521,
      0.0008778112241998315,
      0.0007729361532256007,
      0.0008885361603461206,
      0.0009278018842451274,
      0.0006205924437381327,
      0.0014769940171390772,
      0.001097380998544395,
      0.0009593020658940077,
      0.00114421546459198,
      0.0008020569221116602,
      0.0008836244815029204,
      0.0009363514836877584,
      0.0008534488151781261,
      0.0007510508294217288,
      0.001004702877253294,
      0.0007546938140876591,
      0.0007929297862574458,
      0.0006985250511206686,
      0.0010009543038904667,
      0.001139622530899942,
      0.0009846983011811972,
      0.0008797504706308246,
      0.0007351245149038732,
      0.0008075957885012031,
      0.0012969064991921186,
      0.0009488874929957092,
      0.001140981214120984,
      0.0009663022356107831,
      0.0012256231857463717,
      0.00113857036922127,
      0.0013681015698239207,
      0.001439698738977313,
      0.0005789757706224918,
      0.0006247644778341055,
      0.0009066754137165844,
      0.0007874129223637283,
      0.0011807819828391075,
      0.0008847977733239532,
      0.0009726012358441949,
      0.0009408519836142659,
      0.0007978097419254482,
      0.0007852757116779685,
      0.0008156374096870422,
      0.0007452495046891272,
      0.0008599594584666193,
      0.0008084498113021255
    ]
  },
  "module": {
    "module_id": "node_conv2d_7",
    "spec_hash": "conv2d_32x64x4x4_s16x16_st2x2_p1x1_d1x1_g1_mp4_i256_o512",
    "generated_by": "Foundry",
    "attempt": 1,
    "rtl_path": "output/resnet8/failure_corpus/visible/node_conv2d_7/node_conv2d_7__001__foundry_assayer__20260613T131415Z/node_conv2d_7.v"
  },
  "verif_result": {
    "module_id": "node_conv2d_7",
    "status": "fail",
    "timing_pass": true,
    "timing_actual_cycles": 32902,
    "timing_expected_cycles": 32902,
    "expected": [
      -28,
      -5,
      -21,
      -7,
      0,
      14,
      7,
      -7,
      15,
      -18,
      -3,
      -30,
      -26,
      -15,
      7,
      22,
      5,
      -29,
      -30,
      -6,
      4,
      -3,
      -3,
      5,
      -4,
      15,
      23,
      5,
      -1,
      -16,
      -10,
      -4,
      -23,
      -17,
      5,
      -3,
      -25,
      12,
      -6,
      -22,
      35,
      -1,
      -7,
      -19,
      -13,
      -3,
      -5,
      -5,
      -4,
      5,
      4,
      1,
      -21,
      -5,
      -8,
      5,
      -21,
      3,
      -12,
      -37,
      -11,
      -25,
      0,
      -14,
      -29,
      -9,
      -25,
      -3,
      -6,
      14,
      -4,
      -4,
      -17,
      -14,
      9,
      -11,
      6,
      -16,
      -1,
      4,
      10,
      -6,
      -37,
      -20,
      -1,
      -7,
      -3,
      -5,
      26,
      -3,
      20,
      13,
      -9,
      -8,
      18,
      0,
      1,
      8,
      4,
      -14,
      -10,
      7,
      2,
      -34,
      3,
      9,
      -9,
      -18,
      -20,
      -2,
      -10,
      -13,
      -16,
      -16,
      0,
      0,
      -13,
      0,
      1,
      -20,
      -15,
      -16,
      -16,
      -16,
      -28,
      -24,
      -7,
      -5,
      -35,
      -21,
      -16,
      4,
      7,
      13,
      12,
      -4,
      20,
      -6,
      -4,
      -11,
      -18,
      -15,
      19,
      15,
      5,
      -20,
      -23,
      -16,
      5,
      -22,
      -15,
      2,
      8,
      -4,
      19,
      19,
      -8,
      -5,
      -5,
      -8,
      -32,
      -6,
      -3,
      -16,
      -5,
      2,
      -12,
      -14,
      3,
      11,
      5,
      0,
      4,
      0,
      -10,
      -1,
      14,
      18,
      0,
      -10,
      -12,
      -16,
      6,
      -18,
      -4,
      9,
      -25,
      -30,
      -16,
      -31,
      -2,
      -10,
      -19,
      -6,
      -19,
      -13,
      24,
      10,
      0,
      11,
      9,
      -12,
      -2,
      -6,
      -26,
      -33,
      -15,
      34,
      16,
      -31,
      -17,
      -5,
      -5,
      -27,
      -8,
      12,
      -18,
      -5,
      6,
      11,
      -5,
      -11,
      1,
      -3,
      -14,
      9,
      3,
      -16,
      -25,
      12,
      -14,
      -13,
      10,
      10,
      10,
      -35,
      4,
      12,
      -6,
      -16,
      -6,
      -14,
      3,
      -18,
      -24,
      -17,
      -3,
      -18,
      -5,
      7,
      -20,
      -41,
      -21,
      -32,
      -11,
      -5,
      -28,
      -38,
      -29,
      18,
      25,
      17,
      -8,
      -3,
      37,
      -27,
      -18,
      -29,
      -30,
      -32,
      14,
      7,
      -2,
      -20,
      -28,
      -6,
      -3,
      -33,
      -33,
      6,
      -20,
      7,
      1,
      10,
      -9,
      11,
      -14,
      -2,
      -13,
      -8,
      -8,
      -6,
      -1,
      7,
      -14,
      -22,
      3,
      0,
      -2,
      -46,
      -19,
      17,
      -12,
      4,
      -5,
      3,
      -1,
      -14,
      -6,
      -16,
      30,
      -23,
      -17,
      -11,
      -18,
      -32,
      -7,
      -10,
      -9,
      -27,
      -26,
      -19,
      -20,
      -5,
      24,
      20,
      -10,
      -5,
      30,
      -19,
      -16,
      -6,
      -14,
      -23,
      8,
      12,
      -7,
      -2,
      -33,
      -12,
      15,
      -31,
      -37,
      4,
      -17,
      11,
      9,
      3,
      -5,
      29,
      -20,
      -17,
      -14,
      -4,
      -7,
      15,
      -5,
      -3,
      4,
      -26,
      -8,
      -1,
      -5,
      -45,
      -19,
      0,
      13,
      -11,
      5,
      7,
      -8,
      -25,
      0,
      -14,
      39,
      -16,
      -20,
      -15,
      -17,
      -35,
      1,
      -9,
      5,
      -15,
      -24,
      -18,
      -25,
      -45,
      13,
      14,
      -14,
      -16,
      22,
      -21,
      -24,
      -26,
      -30,
      -36,
      -14,
      9,
      -11,
      -31,
      -28,
      7,
      1,
      -33,
      -19,
      -4,
      -10,
      17,
      6,
      -16,
      0,
      -11,
      -17,
      -8,
      -17,
      -1,
      -12,
      31,
      -19,
      -9,
      -15,
      -22,
      13,
      -20,
      -12,
      -46,
      -26,
      1,
      4,
      1,
      -4,
      17,
      2,
      -17,
      1,
      -23,
      14,
      -11,
      -10,
      -21,
      -1,
      -45,
      -2,
      3,
      17,
      -30,
      -15,
      -6,
      -25,
      6,
      -30,
      -1,
      6,
      -12,
      -12,
      -28,
      5,
      -16,
      -4,
      5,
      -25,
      8,
      8,
      -7,
      -32,
      13,
      -13,
      -7,
      7,
      -5,
      1,
      1,
      4,
      0,
      0,
      -5,
      8,
      -5,
      -15,
      23,
      4,
      -7,
      -27,
      20,
      -12,
      -15,
      13,
      -7,
      -12,
      -1,
      -6,
      -1,
      -20,
      -21,
      -14,
      -20,
      -5,
      0,
      3,
      2,
      -26,
      -5,
      9,
      -9,
      -1,
      8,
      -15,
      -13,
      -16,
      7,
      -19,
      -21,
      3,
      4,
      -18,
      6,
      -1,
      1,
      20,
      -11,
      -1,
      -7,
      -16,
      0,
      -1,
      -11,
      -5,
      -14,
      -2,
      -22,
      -13,
      -9,
      -22,
      3,
      -5,
      -12,
      -10,
      -8,
      4,
      3,
      -18,
      4,
      -21,
      -11,
      -8,
      -10,
      -17,
      -7,
      -15,
      2,
      2,
      -5,
      -14,
      -10,
      -16,
      4,
      -12,
      -6,
      -7,
      10,
      21,
      -18,
      8,
      -2,
      -18,
      -3,
      5,
      1,
      -6,
      -4,
      -12,
      -2,
      -8,
      -3,
      -13,
      -17,
      -4,
      -8,
      -25,
      6,
      4,
      -2,
      10,
      -14,
      -2,
      8,
      -5,
      0,
      1,
      -3,
      -19,
      -2,
      -15,
      -13,
      -36,
      -21,
      2,
      0,
      -24,
      -7,
      -17,
      1,
      12,
      13,
      -17,
      -12,
      -12,
      -27,
      -19,
      -3,
      -4,
      -14,
      -23,
      -7,
      -2,
      0,
      7,
      -1,
      -10,
      -8,
      -6,
      -8,
      -19,
      5,
      25,
      -16,
      7,
      -2,
      -15,
      -7,
      2,
      4,
      11,
      -18,
      -5,
      1,
      4,
      1,
      -10,
      -18,
      0,
      -6,
      -6,
      -6,
      -1,
      4,
      -7,
      -17,
      -2,
      -5,
      -13,
      1,
      -7,
      -8,
      -21,
      3,
      -8,
      3,
      -19,
      -23,
      -1,
      -8,
      -14,
      -15,
      -11,
      4,
      -9,
      -1,
      -22,
      -7,
      -5,
      -22,
      -16,
      -4,
      2,
      -16,
      -9,
      2,
      -2,
      -14,
      -9,
      -14,
      -18,
      -4,
      -4,
      -15,
      -6,
      9,
      15,
      -10,
      -2,
      2,
      -14,
      -7,
      10,
      3,
      11,
      2,
      -4,
      -3,
      -7,
      13,
      -14,
      -9,
      2,
      -8,
      -8,
      -2,
      -10,
      7,
      -8,
      -21,
      -15,
      -8,
      -17,
      -3,
      13,
      -13,
      -14,
      1,
      -2,
      -12,
      -14,
      -4,
      -9,
      6,
      -12,
      -22,
      -5,
      1,
      -17,
      -17,
      -17,
      4,
      -15,
      -7,
      -3,
      -4,
      -5,
      -7,
      2,
      11,
      -2,
      -14,
      -22,
      -25,
      -18,
      10,
      -9,
      -13,
      -6,
      3,
      17,
      -17,
      8,
      -3,
      -29,
      -10,
      9,
      2,
      8,
      -2,
      -13,
      -6,
      -12,
      9,
      -19,
      -16,
      4,
      -8,
      -10,
      2,
      3,
      -7,
      11,
      -14,
      -8,
      3,
      -9,
      -4,
      4,
      -18,
      -18,
      0,
      0,
      -11,
      -16,
      -16,
      -12,
      -4,
      -4,
      -24,
      -12,
      -1,
      1,
      -6,
      -12,
      -3,
      -19,
      -26,
      -11,
      -9,
      -6,
      -4,
      -5,
      1,
      -4,
      -26,
      -29,
      -20,
      -19,
      6,
      -18,
      -15,
      -15,
      15,
      4,
      -10,
      0,
      0,
      -37,
      -4,
      21,
      -9,
      6,
      5,
      -8,
      -5,
      -6,
      16,
      -24,
      -18,
      -7,
      -16,
      -18,
      0,
      2,
      4,
      6,
      -17,
      -3,
      10,
      -11,
      1,
      19,
      -18,
      -19,
      -8,
      13,
      -17,
      1,
      -12,
      -30,
      2,
      -6,
      -19,
      -10,
      -1,
      3,
      1,
      -34,
      -9,
      -9,
      -22,
      -11,
      -16,
      -17,
      -6,
      -10,
      6,
      5,
      -5,
      -22,
      -9,
      -10,
      -4,
      -17,
      -10,
      -14,
      10,
      4,
      -8,
      -3,
      1,
      -30,
      -1,
      6,
      -6,
      -9,
      4,
      -13,
      -9,
      -4,
      -4,
      -20,
      -5,
      -9,
      -18,
      -16,
      -8,
      -2,
      -1,
      1,
      -7,
      -24,
      11,
      -16,
      -1,
      -2,
      -5,
      -25,
      -5,
      -13,
      -16,
      -20,
      -21,
      -2,
      -5,
      -22,
      -8,
      -15,
      -5,
      6,
      -2,
      -19,
      -21,
      2,
      -26,
      -15,
      -3,
      2,
      -6,
      -15,
      -3,
      -6,
      1,
      2,
      -8,
      9,
      -7,
      0,
      -18,
      -9,
      2,
      8,
      -4,
      -10,
      6,
      -16,
      8,
      -2,
      -20,
      2,
      4,
      -7,
      -2,
      2,
      -10,
      -4,
      -11,
      -3,
      -4,
      -23,
      -12,
      1,
      11,
      -11,
      5,
      -8,
      -6,
      -10,
      -4,
      -6,
      -7,
      -21,
      -2,
      -4,
      4,
      -2,
      -16,
      4,
      1,
      -10,
      -2,
      -10,
      4,
      0,
      -8,
      -25,
      -21,
      5,
      -16,
      -16,
      -6,
      -5,
      -4,
      0,
      5
    ],
    "got": [
      -128,
      -128,
      -128,
      -128,
      127,
      127,
      127,
      -128,
      127,
      -128,
      -128,
      -128,
      -128,
      -128,
      127,
      127,
      127,
      -128,
      -128,
      -128,
      127,
      -128,
      -128,
      127,
      -128,
      127,
      127,
      127,
      -128,
      -128,
      -128,
      -128,
      -128,
      -128,
      127,
      -128,
      -128,
      127,
      -128,
      -128,
      127,
      -128,
      -128,
      -128,
      -128,
      -128,
      -128,
      -128,
      -128,
      127,
      127,
      127,
      -128,
      -128,
      -128,
      127,
      -128,
      127,
      -128,
      -128,
      -128,
      -128,
      -18,
      -128,
      -128,
      -128,
      -128,
      -128,
      -128,
      127,
      -128,
      -128,
      -128,
      -128,
      127,
      -128,
      127,
      -128,
      -128,
      127,
      127,
      -128,
      -128,
      -128,
      -128,
      -128,
      -128,
      -128,
      127,
      -128,
      127,
      127,
      -128,
      -128,
      127,
      -128,
      127,
      127,
      127,
      -128,
      -128,
      127,
      127,
      -128,
      127,
      127,
      -128,
      -128,
      -128,
      -128,
      -128,
      -128,
      -128,
      -128,
      127,
      127,
      -128,
      127,
      127,
      -128,
      -128,
      -128,
      -128,
      -128,
      -128,
      -128,
      -128,
      -128,
      -128,
      -128,
      -128,
      127,
      127,
      127,
      127,
      -128,
      127,
      -128,
      -128,
      -128,
      -128,
      -128,
      127,
      127,
      127,
      -128,
      -128,
      -128,
      127,
      -128,
      -128,
      127,
      127,
      -128,
      127,
      127,
      -128,
      -128,
      -128,
      -128,
      -128,
      -128,
      -128,
      -128,
      -128,
      127,
      -128,
      -128,
      127,
      127,
      127,
      -128,
      127,
      127,
      -128,
      -128,
      127,
      127,
      -112,
      -128,
      -128,
      -128,
      127,
      -128,
      -128,
      127,
      -128,
      -128,
      -128,
      -128,
      -128,
      -128,
      -128,
      -128,
      -128,
      -128,
      127,
      127,
      -128,
      127,
      127,
      -128,
      -128,
      -128,
      -128,
      -128,
      -128,
      127,
      127,
      -128,
      -128,
      -128,
      -128,
      -128,
      -128,
      127,
      -128,
      -128,
      127,
      127,
      -128,
      -128,
      127,
      -128,
      -128,
      127,
      127,
      -128,
      -128,
      127,
      -128,
      -128,
      127,
      127,
      127,
      -128,
      127,
      127,
      -128,
      -128,
      -128,
      -128,
      127,
      -128,
      -128,
      -128,
      -128,
      -128,
      -128,
      127,
      -128,
      -128,
      -128,
      -128,
      -128,
      -128,
      -128,
      -128,
      -128,
      127,
      127,
      127,
      -128,
      -128,
      127,
      -128,
      -128,
      -128,
      -128,
      -128,
      127,
      127,
      -128,
      -128,
      -128,
      -128,
      -128,
      -128,
      -128,
      127,
      -128,
      127,
      127,
      127,
      -128,
      127,
      -128,
      -128,
      -128,
      -128,
      -128,
      -128,
      -128,
      127,
      -128,
      -128,
      127,
      -128,
      -128,
      -128,
      -128,
      127,
      -128,
      127,
      -128,
      127,
      -128,
      -128,
      -128,
      -128,
      127,
      -128,
      -128,
      -128,
      -128,
      -128,
      -128,
      -128,
      -128,
      -128,
      -128,
      -128,
      -128,
      -128,
      127,
      127,
      -128,
      -128,
      127,
      -128,
      -128,
      -128,
      -128,
      -128,
      127,
      127,
      -128,
      -128,
      -128,
      -128,
      127,
      -128,
      -128,
      127,
      -128,
      127,
      127,
      127,
      -128,
      127,
      -128,
      -128,
      -128,
      -128,
      -128,
      127,
      -128,
      -128,
      127,
      -128,
      -128,
      -128,
      -128,
      -128,
      -128,
      127,
      127,
      -128,
      127,
      127,
      -128,
      -128,
      127,
      -128,
      127,
      -128,
      -128,
      -128,
      -128,
      -128,
      127,
      -128,
      127,
      -128,
      -128,
      -128,
      -128,
      -128,
      127,
      127,
      -128,
      -128,
      127,
      -128,
      -128,
      -128,
      -128,
      -128,
      -128,
      127,
      -128,
      -128,
      -128,
      127,
      127,
      -128,
      -128,
      -128,
      -128,
      127,
      127,
      -128,
      -128,
      -128,
      -128,
      -128,
      -128,
      -128,
      -128,
      127,
      -128,
      -128,
      -128,
      -128,
      127,
      -128,
      -128,
      -128,
      -128,
      127,
      127,
      127,
      -128,
      127,
      127,
      -128,
      127,
      -128,
      127,
      -128,
      -128,
      -128,
      -128,
      -128,
      -128,
      127,
      127,
      -128,
      -128,
      -128,
      -128,
      127,
      -128,
      -128,
      127,
      -128,
      -128,
      -128,
      127,
      -128,
      -128,
      127,
      -128,
      127,
      127,
      -128,
      -128,
      127,
      -128,
      -128,
      127,
      -128,
      127,
      127,
      127,
      -70,
      -128,
      -128,
      127,
      -128,
      -128,
      127,
      127,
      -128,
      -128,
      127,
      -128,
      -128,
      127,
      -128,
      -128,
      -128,
      -128,
      -128,
      -128,
      -128,
      -128,
      -128,
      -128,
      127,
      127,
      127,
      -128,
      -128,
      127,
      -128,
      -128,
      127,
      -128,
      -128,
      -128,
      127,
      -128,
      -128,
      127,
      127,
      -128,
      127,
      -128,
      127,
      127,
      -128,
      -128,
      -128,
      -128,
      127,
      -128,
      -128,
      -128,
      -128,
      -128,
      -128,
      -128,
      -128,
      -128,
      127,
      -128,
      -128,
      -128,
      -128,
      127,
      127,
      -128,
      127,
      -128,
      -128,
      -128,
      -128,
      -128,
      -128,
      -128,
      127,
      127,
      -128,
      -128,
      -128,
      -128,
      127,
      -128,
      -128,
      -128,
      127,
      127,
      -128,
      127,
      -128,
      -128,
      -128,
      127,
      127,
      -128,
      -128,
      -128,
      -128,
      -128,
      -128,
      -128,
      -128,
      -128,
      -128,
      -128,
      127,
      127,
      -128,
      127,
      -128,
      -128,
      127,
      -128,
      28,
      127,
      -128,
      -128,
      -128,
      -128,
      -128,
      -128,
      -128,
      127,
      -128,
      -128,
      -128,
      -128,
      127,
      127,
      127,
      -128,
      -128,
      -128,
      -128,
      -128,
      -128,
      -128,
      -128,
      -128,
      -128,
      -128,
      127,
      127,
      -128,
      -128,
      -128,
      -128,
      -128,
      -128,
      127,
      127,
      -128,
      127,
      -128,
      -128,
      -128,
      127,
      127,
      127,
      -128,
      -128,
      127,
      127,
      127,
      -128,
      -128,
      -128,
      -128,
      -128,
      -128,
      -128,
      127,
      -128,
      -128,
      -128,
      -128,
      -128,
      127,
      -128,
      -128,
      -128,
      127,
      -128,
      127,
      -128,
      -128,
      -128,
      -128,
      -128,
      -128,
      -128,
      127,
      -128,
      -128,
      -128,
      -128,
      -128,
      -128,
      -128,
      -128,
      127,
      -128,
      -128,
      127,
      -128,
      -128,
      -128,
      -128,
      -128,
      -128,
      -128,
      -128,
      -128,
      127,
      127,
      -128,
      -128,
      127,
      -128,
      -128,
      127,
      127,
      127,
      127,
      -128,
      -128,
      -128,
      127,
      -128,
      -128,
      127,
      -128,
      -128,
      -128,
      -128,
      127,
      -128,
      -128,
      -128,
      -128,
      -128,
      -128,
      127,
      -128,
      -128,
      127,
      -128,
      -128,
      -128,
      -128,
      -128,
      127,
      -128,
      -128,
      -128,
      127,
      -128,
      -128,
      -128,
      127,
      -128,
      -128,
      -128,
      -128,
      -128,
      -128,
      127,
      127,
      -128,
      -128,
      -128,
      -128,
      -128,
      127,
      -128,
      -128,
      -128,
      127,
      127,
      -128,
      127,
      -128,
      -128,
      -128,
      127,
      127,
      127,
      -128,
      -128,
      -128,
      -128,
      127,
      -128,
      -128,
      127,
      -128,
      -128,
      127,
      127,
      -128,
      127,
      -128,
      -128,
      127,
      -128,
      -128,
      127,
      -128,
      -128,
      127,
      -34,
      -128,
      -128,
      -128,
      -128,
      -128,
      -128,
      -128,
      -128,
      -128,
      127,
      -128,
      -128,
      -128,
      -128,
      -128,
      -128,
      -128,
      -128,
      -128,
      -128,
      127,
      -128,
      -128,
      -128,
      -128,
      -128,
      127,
      -128,
      -128,
      -128,
      127,
      127,
      -128,
      -128,
      127,
      -128,
      -128,
      127,
      -128,
      127,
      127,
      -128,
      -128,
      -128,
      127,
      -128,
      -128,
      -128,
      -128,
      -128,
      127,
      127,
      127,
      127,
      -128,
      -128,
      127,
      -128,
      127,
      127,
      -128,
      -128,
      -128,
      127,
      -128,
      127,
      -128,
      -128,
      127,
      -128,
      -128,
      -128,
      -128,
      127,
      127,
      -128,
      -128,
      -128,
      -128,
      -128,
      -128,
      -128,
      -128,
      -128,
      127,
      127,
      -128,
      -128,
      -128,
      -128,
      -128,
      -128,
      -128,
      -128,
      127,
      127,
      -128,
      -128,
      127,
      -128,
      -128,
      127,
      -128,
      -128,
      127,
      -128,
      -128,
      -128,
      -128,
      -128,
      -128,
      -128,
      -128,
      -128,
      -128,
      -128,
      -128,
      127,
      -128,
      -128,
      127,
      -128,
      -128,
      -128,
      -128,
      -128,
      -128,
      -128,
      -128,
      -128,
      -128,
      -128,
      -128,
      -128,
      -128,
      -128,
      -128,
      127,
      -128,
      -128,
      -128,
      127,
      -128,
      -128,
      -128,
      127,
      -128,
      -128,
      -128,
      -128,
      127,
      127,
      -128,
      127,
      -128,
      25,
      -128,
      -128,
      127,
      127,
      -128,
      -128,
      127,
      -128,
      127,
      -128,
      -128,
      127,
      127,
      -128,
      -128,
      127,
      -128,
      -128,
      -128,
      -128,
      -128,
      -128,
      -128,
      127,
      127,
      -128,
      127,
      -128,
      -128,
      -128,
      -128,
      -128,
      -128,
      -128,
      -128,
      -128,
      127,
      -128,
      -128,
      127,
      127,
      -128,
      -128,
      -128,
      127,
      127,
      -128,
      -128,
      -128,
      127,
      -128,
      -128,
      -128,
      -128,
      -128,
      127,
      127
    ],
    "max_error": 128,
    "mean_error": 114.94732666015625,
    "sample_count": 32768,
    "fix_hint": "Simulation completed but values disagreed. max_error=128 across 32768 samples. See first_mismatch_* and expected/got for raw evidence.",
    "verilator_stderr": "Simulation completed but values disagreed. max_error=128 across 32768 samples. See first_mismatch_* and expected/got for raw evidence.",
    "status_class": "sim_completed_mismatch",
    "outputs_expected": 512,
    "outputs_received": 512,
    "missing_index_start": -1,
    "missing_index_end": -1,
    "last_valid_out_cycle": 16829220,
    "simulation_end_cycle": 16829221,
    "output_gap_histogram": [
      0,
      0,
      0,
      0
    ],
    "first_mismatch_index": 0,
    "first_mismatch_expected": -28,
    "first_mismatch_got": -128,
    "first_mismatch_vector_index": 0,
    "first_mismatch_output_index": 0,
    "first_mismatch_channel_index": 0,
    "exact_match_count": 1,
    "mismatch_count": 32767,
    "signed_error_sum": -1605712,
    "positive_error_count": 9122,
    "negative_error_count": 23645,
    "first_valid_in_cycle": 7,
    "first_valid_out_cycle": 32909,
    "per_vector": [
      {
        "vector_idx": 0,
        "outputs_received": 64,
        "exact_match_count": 0,
        "mismatch_count": 4096,
        "max_error": 128,
        "mean_error": 114.689208984375,
        "actual_cycles": 32902,
        "first_mismatch_output_index": 0
      },
      {
        "vector_idx": 1,
        "outputs_received": 64,
        "exact_match_count": 1,
        "mismatch_count": 4095,
        "max_error": 128,
        "mean_error": 114.83544921875,
        "actual_cycles": 32902,
        "first_mismatch_output_index": 0
      },
      {
        "vector_idx": 2,
        "outputs_received": 64,
        "exact_match_count": 0,
        "mismatch_count": 4096,
        "max_error": 128,
        "mean_error": 115.834228515625,
        "actual_cycles": 32902,
        "first_mismatch_output_index": 0
      },
      {
        "vector_idx": 3,
        "outputs_received": 64,
        "exact_match_count": 0,
        "mismatch_count": 4096,
        "max_error": 128,
        "mean_error": 114.380126953125,
        "actual_cycles": 32902,
        "first_mismatch_output_index": 0
      },
      {
        "vector_idx": 4,
        "outputs_received": 64,
        "exact_match_count": 0,
        "mismatch_count": 4096,
        "max_error": 128,
        "mean_error": 114.030029296875,
        "actual_cycles": 32902,
        "first_mismatch_output_index": 0
      },
      {
        "vector_idx": 5,
        "outputs_received": 64,
        "exact_match_count": 0,
        "mismatch_count": 4096,
        "max_error": 128,
        "mean_error": 116.417724609375,
        "actual_cycles": 32902,
        "first_mismatch_output_index": 0
      },
      {
        "vector_idx": 6,
        "outputs_received": 64,
        "exact_match_count": 0,
        "mismatch_count": 4096,
        "max_error": 128,
        "mean_error": 113.05322265625,
        "actual_cycles": 32902,
        "first_mismatch_output_index": 0
      },
      {
        "vector_idx": 7,
        "outputs_received": 64,
        "exact_match_count": 0,
        "mismatch_count": 4096,
        "max_error": 128,
        "mean_error": 116.338623046875,
        "actual_cycles": 32902,
        "first_mismatch_output_index": 0
      }
    ],
    "failure_category": "code_bug",
    "classifier_reason": "Simulation completed with correct cycle count (32902 == 32902) and all 512 outputs received. The output values are almost entirely saturated at ±127/−128 (only 1 exact match out of 32768, mean_error=114.9), which is the INT8 saturation signature of a requantization scale bug — the accumulated MAC sum is being clipped before proper scaling, or the scale/shift constants are wrong (per-OC scale_factor present but may not be applied). This is the same class as the historical relu_rescale and stale scale.mem bugs in this project. No resource overflows, no bus-width violations, no toolchain errors. A retry with corrected requantization arithmetic can fix this."
  },
  "logs": {
    "iverilog_stderr": "",
    "verilator_stderr": "Simulation completed but values disagreed. max_error=128 across 32768 samples. See first_mismatch_* and expected/got for raw evidence.",
    "fix_hint": "Simulation completed but values disagreed. max_error=128 across 32768 samples. See first_mismatch_* and expected/got for raw evidence.",
    "verif_result_json": {
      "module_id": "node_conv2d_7",
      "status": "fail",
      "timing_pass": true,
      "timing_actual_cycles": 32902,
      "timing_expected_cycles": 32902,
      "expected": [
        -28,
        -5,
        -21,
        -7,
        0,
        14,
        7,
        -7,
        15,
        -18,
        -3,
        -30,
        -26,
        -15,
        7,
        22,
        5,
        -29,
        -30,
        -6,
        4,
        -3,
        -3,
        5,
        -4,
        15,
        23,
        5,
        -1,
        -16,
        -10,
        -4,
        -23,
        -17,
        5,
        -3,
        -25,
        12,
        -6,
        -22,
        35,
        -1,
        -7,
        -19,
        -13,
        -3,
        -5,
        -5,
        -4,
        5,
        4,
        1,
        -21,
        -5,
        -8,
        5,
        -21,
        3,
        -12,
        -37,
        -11,
        -25,
        0,
        -14,
        -29,
        -9,
        -25,
        -3,
        -6,
        14,
        -4,
        -4,
        -17,
        -14,
        9,
        -11,
        6,
        -16,
        -1,
        4,
        10,
        -6,
        -37,
        -20,
        -1,
        -7,
        -3,
        -5,
        26,
        -3,
        20,
        13,
        -9,
        -8,
        18,
        0,
        1,
        8,
        4,
        -14,
        -10,
        7,
        2,
        -34,
        3,
        9,
        -9,
        -18,
        -20,
        -2,
        -10,
        -13,
        -16,
        -16,
        0,
        0,
        -13,
        0,
        1,
        -20,
        -15,
        -16,
        -16,
        -16,
        -28,
        -24,
        -7,
        -5,
        -35,
        -21,
        -16,
        4,
        7,
        13,
        12,
        -4,
        20,
        -6,
        -4,
        -11,
        -18,
        -15,
        19,
        15,
        5,
        -20,
        -23,
        -16,
        5,
        -22,
        -15,
        2,
        8,
        -4,
        19,
        19,
        -8,
        -5,
        -5,
        -8,
        -32,
        -6,
        -3,
        -16,
        -5,
        2,
        -12,
        -14,
        3,
        11,
        5,
        0,
        4,
        0,
        -10,
        -1,
        14,
        18,
        0,
        -10,
        -12,
        -16,
        6,
        -18,
        -4,
        9,
        -25,
        -30,
        -16,
        -31,
        -2,
        -10,
        -19,
        -6,
        -19,
        -13,
        24,
        10,
        0,
        11,
        9,
        -12,
        -2,
        -6,
        -26,
        -33,
        -15,
        34,
        16,
        -31,
        -17,
        -5,
        -5,
        -27,
        -8,
        12,
        -18,
        -5,
        6,
        11,
        -5,
        -11,
        1,
        -3,
        -14,
        9,
        3,
        -16,
        -25,
        12,
        -14,
        -13,
        10,
        10,
        10,
        -35,
        4,
        12,
        -6,
        -16,
        -6,
        -14,
        3,
        -18,
        -24,
        -17,
        -3,
        -18,
        -5,
        7,
        -20,
        -41,
        -21,
        -32,
        -11,
        -5,
        -28,
        -38,
        -29,
        18,
        25,
        17,
        -8,
        -3,
        37,
        -27,
        -18,
        -29,
        -30,
        -32,
        14,
        7,
        -2,
        -20,
        -28,
        -6,
        -3,
        -33,
        -33,
        6,
        -20,
        7,
        1,
        10,
        -9,
        11,
        -14,
        -2,
        -13,
        -8,
        -8,
        -6,
        -1,
        7,
        -14,
        -22,
        3,
        0,
        -2,
        -46,
        -19,
        17,
        -12,
        4,
        -5,
        3,
        -1,
        -14,
        -6,
        -16,
        30,
        -23,
        -17,
        -11,
        -18,
        -32,
        -7,
        -10,
        -9,
        -27,
        -26,
        -19,
        -20,
        -5,
        24,
        20,
        -10,
        -5,
        30,
        -19,
        -16,
        -6,
        -14,
        -23,
        8,
        12,
        -7,
        -2,
        -33,
        -12,
        15,
        -31,
        -37,
        4,
        -17,
        11,
        9,
        3,
        -5,
        29,
        -20,
        -17,
        -14,
        -4,
        -7,
        15,
        -5,
        -3,
        4,
        -26,
        -8,
        -1,
        -5,
        -45,
        -19,
        0,
        13,
        -11,
        5,
        7,
        -8,
        -25,
        0,
        -14,
        39,
        -16,
        -20,
        -15,
        -17,
        -35,
        1,
        -9,
        5,
        -15,
        -24,
        -18,
        -25,
        -45,
        13,
        14,
        -14,
        -16,
        22,
        -21,
        -24,
        -26,
        -30,
        -36,
        -14,
        9,
        -11,
        -31,
        -28,
        7,
        1,
        -33,
        -19,
        -4,
        -10,
        17,
        6,
        -16,
        0,
        -11,
        -17,
        -8,
        -17,
        -1,
        -12,
        31,
        -19,
        -9,
        -15,
        -22,
        13,
        -20,
        -12,
        -46,
        -26,
        1,
        4,
        1,
        -4,
        17,
        2,
        -17,
        1,
        -23,
        14,
        -11,
        -10,
        -21,
        -1,
        -45,
        -2,
        3,
        17,
        -30,
        -15,
        -6,
        -25,
        6,
        -30,
        -1,
        6,
        -12,
        -12,
        -28,
        5,
        -16,
        -4,
        5,
        -25,
        8,
        8,
        -7,
        -32,
        13,
        -13,
        -7,
        7,
        -5,
        1,
        1,
        4,
        0,
        0,
        -5,
        8,
        -5,
        -15,
        23,
        4,
        -7,
        -27,
        20,
        -12,
        -15,
        13,
        -7,
        -12,
        -1,
        -6,
        -1,
        -20,
        -21,
        -14,
        -20,
        -5,
        0,
        3,
        2,
        -26,
        -5,
        9,
        -9,
        -1,
        8,
        -15,
        -13,
        -16,
        7,
        -19,
        -21,
        3,
        4,
        -18,
        6,
        -1,
        1,
        20,
        -11,
        -1,
        -7,
        -16,
        0,
        -1,
        -11,
        -5,
        -14,
        -2,
        -22,
        -13,
        -9,
        -22,
        3,
        -5,
        -12,
        -10,
        -8,
        4,
        3,
        -18,
        4,
        -21,
        -11,
        -8,
        -10,
        -17,
        -7,
        -15,
        2,
        2,
        -5,
        -14,
        -10,
        -16,
        4,
        -12,
        -6,
        -7,
        10,
        21,
        -18,
        8,
        -2,
        -18,
        -3,
        5,
        1,
        -6,
        -4,
        -12,
        -2,
        -8,
        -3,
        -13,
        -17,
        -4,
        -8,
        -25,
        6,
        4,
        -2,
        10,
        -14,
        -2,
        8,
        -5,
        0,
        1,
        -3,
        -19,
        -2,
        -15,
        -13,
        -36,
        -21,
        2,
        0,
        -24,
        -7,
        -17,
        1,
        12,
        13,
        -17,
        -12,
        -12,
        -27,
        -19,
        -3,
        -4,
        -14,
        -23,
        -7,
        -2,
        0,
        7,
        -1,
        -10,
        -8,
        -6,
        -8,
        -19,
        5,
        25,
        -16,
        7,
        -2,
        -15,
        -7,
        2,
        4,
        11,
        -18,
        -5,
        1,
        4,
        1,
        -10,
        -18,
        0,
        -6,
        -6,
        -6,
        -1,
        4,
        -7,
        -17,
        -2,
        -5,
        -13,
        1,
        -7,
        -8,
        -21,
        3,
        -8,
        3,
        -19,
        -23,
        -1,
        -8,
        -14,
        -15,
        -11,
        4,
        -9,
        -1,
        -22,
        -7,
        -5,
        -22,
        -16,
        -4,
        2,
        -16,
        -9,
        2,
        -2,
        -14,
        -9,
        -14,
        -18,
        -4,
        -4,
        -15,
        -6,
        9,
        15,
        -10,
        -2,
        2,
        -14,
        -7,
        10,
        3,
        11,
        2,
        -4,
        -3,
        -7,
        13,
        -14,
        -9,
        2,
        -8,
        -8,
        -2,
        -10,
        7,
        -8,
        -21,
        -15,
        -8,
        -17,
        -3,
        13,
        -13,
        -14,
        1,
        -2,
        -12,
        -14,
        -4,
        -9,
        6,
        -12,
        -22,
        -5,
        1,
        -17,
        -17,
        -17,
        4,
        -15,
        -7,
        -3,
        -4,
        -5,
        -7,
        2,
        11,
        -2,
        -14,
        -22,
        -25,
        -18,
        10,
        -9,
        -13,
        -6,
        3,
        17,
        -17,
        8,
        -3,
        -29,
        -10,
        9,
        2,
        8,
        -2,
        -13,
        -6,
        -12,
        9,
        -19,
        -16,
        4,
        -8,
        -10,
        2,
        3,
        -7,
        11,
        -14,
        -8,
        3,
        -9,
        -4,
        4,
        -18,
        -18,
        0,
        0,
        -11,
        -16,
        -16,
        -12,
        -4,
        -4,
        -24,
        -12,
        -1,
        1,
        -6,
        -12,
        -3,
        -19,
        -26,
        -11,
        -9,
        -6,
        -4,
        -5,
        1,
        -4,
        -26,
        -29,
        -20,
        -19,
        6,
        -18,
        -15,
        -15,
        15,
        4,
        -10,
        0,
        0,
        -37,
        -4,
        21,
        -9,
        6,
        5,
        -8,
        -5,
        -6,
        16,
        -24,
        -18,
        -7,
        -16,
        -18,
        0,
        2,
        4,
        6,
        -17,
        -3,
        10,
        -11,
        1,
        19,
        -18,
        -19,
        -8,
        13,
        -17,
        1,
        -12,
        -30,
        2,
        -6,
        -19,
        -10,
        -1,
        3,
        1,
        -34,
        -9,
        -9,
        -22,
        -11,
        -16,
        -17,
        -6,
        -10,
        6,
        5,
        -5,
        -22,
        -9,
        -10,
        -4,
        -17,
        -10,
        -14,
        10,
        4,
        -8,
        -3,
        1,
        -30,
        -1,
        6,
        -6,
        -9,
        4,
        -13,
        -9,
        -4,
        -4,
        -20,
        -5,
        -9,
        -18,
        -16,
        -8,
        -2,
        -1,
        1,
        -7,
        -24,
        11,
        -16,
        -1,
        -2,
        -5,
        -25,
        -5,
        -13,
        -16,
        -20,
        -21,
        -2,
        -5,
        -22,
        -8,
        -15,
        -5,
        6,
        -2,
        -19,
        -21,
        2,
        -26,
        -15,
        -3,
        2,
        -6,
        -15,
        -3,
        -6,
        1,
        2,
        -8,
        9,
        -7,
        0,
        -18,
        -9,
        2,
        8,
        -4,
        -10,
        6,
        -16,
        8,
        -2,
        -20,
        2,
        4,
        -7,
        -2,
        2,
        -10,
        -4,
        -11,
        -3,
        -4,
        -23,
        -12,
        1,
        11,
        -11,
        5,
        -8,
        -6,
        -10,
        -4,
        -6,
        -7,
        -21,
        -2,
        -4,
        4,
        -2,
        -16,
        4,
        1,
        -10,
        -2,
        -10,
        4,
        0,
        -8,
        -25,
        -21,
        5,
        -16,
        -16,
        -6,
        -5,
        -4,
        0,
        5
      ],
      "got": [
        -128,
        -128,
        -128,
        -128,
        127,
        127,
        127,
        -128,
        127,
        -128,
        -128,
        -128,
        -128,
        -128,
        127,
        127,
        127,
        -128,
        -128,
        -128,
        127,
        -128,
        -128,
        127,
        -128,
        127,
        127,
        127,
        -128,
        -128,
        -128,
        -128,
        -128,
        -128,
        127,
        -128,
        -128,
        127,
        -128,
        -128,
        127,
        -128,
        -128,
        -128,
        -128,
        -128,
        -128,
        -128,
        -128,
        127,
        127,
        127,
        -128,
        -128,
        -128,
        127,
        -128,
        127,
        -128,
        -128,
        -128,
        -128,
        -18,
        -128,
        -128,
        -128,
        -128,
        -128,
        -128,
        127,
        -128,
        -128,
        -128,
        -128,
        127,
        -128,
        127,
        -128,
        -128,
        127,
        127,
        -128,
        -128,
        -128,
        -128,
        -128,
        -128,
        -128,
        127,
        -128,
        127,
        127,
        -128,
        -128,
        127,
        -128,
        127,
        127,
        127,
        -128,
        -128,
        127,
        127,
        -128,
        127,
        127,
        -128,
        -128,
        -128,
        -128,
        -128,
        -128,
        -128,
        -128,
        127,
        127,
        -128,
        127,
        127,
        -128,
        -128,
        -128,
        -128,
        -128,
        -128,
        -128,
        -128,
        -128,
        -128,
        -128,
        -128,
        127,
        127,
        127,
        127,
        -128,
        127,
        -128,
        -128,
        -128,
        -128,
        -128,
        127,
        127,
        127,
        -128,
        -128,
        -128,
        127,
        -128,
        -128,
        127,
        127,
        -128,
        127,
        127,
        -128,
        -128,
        -128,
        -128,
        -128,
        -128,
        -128,
        -128,
        -128,
        127,
        -128,
        -128,
        127,
        127,
        127,
        -128,
        127,
        127,
        -128,
        -128,
        127,
        127,
        -112,
        -128,
        -128,
        -128,
        127,
        -128,
        -128,
        127,
        -128,
        -128,
        -128,
        -128,
        -128,
        -128,
        -128,
        -128,
        -128,
        -128,
        127,
        127,
        -128,
        127,
        127,
        -128,
        -128,
        -128,
        -128,
        -128,
        -128,
        127,
        127,
        -128,
        -128,
        -128,
        -128,
        -128,
        -128,
        127,
        -128,
        -128,
        127,
        127,
        -128,
        -128,
        127,
        -128,
        -128,
        127,
        127,
        -128,
        -128,
        127,
        -128,
        -128,
        127,
        127,
        127,
        -128,
        127,
        127,
        -128,
        -128,
        -128,
        -128,
        127,
        -128,
        -128,
        -128,
        -128,
        -128,
        -128,
        127,
        -128,
        -128,
        -128,
        -128,
        -128,
        -128,
        -128,
        -128,
        -128,
        127,
        127,
        127,
        -128,
        -128,
        127,
        -128,
        -128,
        -128,
        -128,
        -128,
        127,
        127,
        -128,
        -128,
        -128,
        -128,
        -128,
        -128,
        -128,
        127,
        -128,
        127,
        127,
        127,
        -128,
        127,
        -128,
        -128,
        -128,
        -128,
        -128,
        -128,
        -128,
        127,
        -128,
        -128,
        127,
        -128,
        -128,
        -128,
        -128,
        127,
        -128,
        127,
        -128,
        127,
        -128,
        -128,
        -128,
        -128,
        127,
        -128,
        -128,
        -128,
        -128,
        -128,
        -128,
        -128,
        -128,
        -128,
        -128,
        -128,
        -128,
        -128,
        127,
        127,
        -128,
        -128,
        127,
        -128,
        -128,
        -128,
        -128,
        -128,
        127,
        127,
        -128,
        -128,
        -128,
        -128,
        127,
        -128,
        -128,
        127,
        -128,
        127,
        127,
        127,
        -128,
        127,
        -128,
        -128,
        -128,
        -128,
        -128,
        127,
        -128,
        -128,
        127,
        -128,
        -128,
        -128,
        -128,
        -128,
        -128,
        127,
        127,
        -128,
        127,
        127,
        -128,
        -128,
        127,
        -128,
        127,
        -128,
        -128,
        -128,
        -128,
        -128,
        127,
        -128,
        127,
        -128,
        -128,
        -128,
        -128,
        -128,
        127,
        127,
        -128,
        -128,
        127,
        -128,
        -128,
        -128,
        -128,
        -128,
        -128,
        127,
        -128,
        -128,
        -128,
        127,
        127,
        -128,
        -128,
        -128,
        -128,
        127,
        127,
        -128,
        -128,
        -128,
        -128,
        -128,
        -128,
        -128,
        -128,
        127,
        -128,
        -128,
        -128,
        -128,
        127,
        -128,
        -128,
        -128,
        -128,
        127,
        127,
        127,
        -128,
        127,
        127,
        -128,
        127,
        -128,
        127,
        -128,
        -128,
        -128,
        -128,
        -128,
        -128,
        127,
        127,
        -128,
        -128,
        -128,
        -128,
        127,
        -128,
        -128,
        127,
        -128,
        -128,
        -128,
        127,
        -128,
        -128,
        127,
        -128,
        127,
        127,
        -128,
        -128,
        127,
        -128,
        -128,
        127,
        -128,
        127,
        127,
        127,
        -70,
        -128,
        -128,
        127,
        -128,
        -128,
        127,
        127,
        -128,
        -128,
        127,
        -128,
        -128,
        127,
        -128,
        -128,
        -128,
        -128,
        -128,
        -128,
        -128,
        -128,
        -128,
        -128,
        127,
        127,
        127,
        -128,
        -128,
        127,
        -128,
        -128,
        127,
        -128,
        -128,
        -128,
        127,
        -128,
        -128,
        127,
        127,
        -128,
        127,
        -128,
        127,
        127,
        -128,
        -128,
        -128,
        -128,
        127,
        -128,
        -128,
        -128,
        -128,
        -128,
        -128,
        -128,
        -128,
        -128,
        127,
        -128,
        -128,
        -128,
        -128,
        127,
        127,
        -128,
        127,
        -128,
        -128,
        -128,
        -128,
        -128,
        -128,
        -128,
        127,
        127,
        -128,
        -128,
        -128,
        -128,
        127,
        -128,
        -128,
        -128,
        127,
        127,
        -128,
        127,
        -128,
        -128,
        -128,
        127,
        127,
        -128,
        -128,
        -128,
        -128,
        -128,
        -128,
        -128,
        -128,
        -128,
        -128,
        -128,
        127,
        127,
        -128,
        127,
        -128,
        -128,
        127,
        -128,
        28,
        127,
        -128,
        -128,
        -128,
        -128,
        -128,
        -128,
        -128,
        127,
        -128,
        -128,
        -128,
        -128,
        127,
        127,
        127,
        -128,
        -128,
        -128,
        -128,
        -128,
        -128,
        -128,
        -128,
        -128,
        -128,
        -128,
        127,
        127,
        -128,
        -128,
        -128,
        -128,
        -128,
        -128,
        127,
        127,
        -128,
        127,
        -128,
        -128,
        -128,
        127,
        127,
        127,
        -128,
        -128,
        127,
        127,
        127,
        -128,
        -128,
        -128,
        -128,
        -128,
        -128,
        -128,
        127,
        -128,
        -128,
        -128,
        -128,
        -128,
        127,
        -128,
        -128,
        -128,
        127,
        -128,
        127,
        -128,
        -128,
        -128,
        -128,
        -128,
        -128,
        -128,
        127,
        -128,
        -128,
        -128,
        -128,
        -128,
        -128,
        -128,
        -128,
        127,
        -128,
        -128,
        127,
        -128,
        -128,
        -128,
        -128,
        -128,
        -128,
        -128,
        -128,
        -128,
        127,
        127,
        -128,
        -128,
        127,
        -128,
        -128,
        127,
        127,
        127,
        127,
        -128,
        -128,
        -128,
        127,
        -128,
        -128,
        127,
        -128,
        -128,
        -128,
        -128,
        127,
        -128,
        -128,
        -128,
        -128,
        -128,
        -128,
        127,
        -128,
        -128,
        127,
        -128,
        -128,
        -128,
        -128,
        -128,
        127,
        -128,
        -128,
        -128,
        127,
        -128,
        -128,
        -128,
        127,
        -128,
        -128,
        -128,
        -128,
        -128,
        -128,
        127,
        127,
        -128,
        -128,
        -128,
        -128,
        -128,
        127,
        -128,
        -128,
        -128,
        127,
        127,
        -128,
        127,
        -128,
        -128,
        -128,
        127,
        127,
        127,
        -128,
        -128,
        -128,
        -128,
        127,
        -128,
        -128,
        127,
        -128,
        -128,
        127,
        127,
        -128,
        127,
        -128,
        -128,
        127,
        -128,
        -128,
        127,
        -128,
        -128,
        127,
        -34,
        -128,
        -128,
        -128,
        -128,
        -128,
        -128,
        -128,
        -128,
        -128,
        127,
        -128,
        -128,
        -128,
        -128,
        -128,
        -128,
        -128,
        -128,
        -128,
        -128,
        127,
        -128,
        -128,
        -128,
        -128,
        -128,
        127,
        -128,
        -128,
        -128,
        127,
        127,
        -128,
        -128,
        127,
        -128,
        -128,
        127,
        -128,
        127,
        127,
        -128,
        -128,
        -128,
        127,
        -128,
        -128,
        -128,
        -128,
        -128,
        127,
        127,
        127,
        127,
        -128,
        -128,
        127,
        -128,
        127,
        127,
        -128,
        -128,
        -128,
        127,
        -128,
        127,
        -128,
        -128,
        127,
        -128,
        -128,
        -128,
        -128,
        127,
        127,
        -128,
        -128,
        -128,
        -128,
        -128,
        -128,
        -128,
        -128,
        -128,
        127,
        127,
        -128,
        -128,
        -128,
        -128,
        -128,
        -128,
        -128,
        -128,
        127,
        127,
        -128,
        -128,
        127,
        -128,
        -128,
        127,
        -128,
        -128,
        127,
        -128,
        -128,
        -128,
        -128,
        -128,
        -128,
        -128,
        -128,
        -128,
        -128,
        -128,
        -128,
        127,
        -128,
        -128,
        127,
        -128,
        -128,
        -128,
        -128,
        -128,
        -128,
        -128,
        -128,
        -128,
        -128,
        -128,
        -128,
        -128,
        -128,
        -128,
        -128,
        127,
        -128,
        -128,
        -128,
        127,
        -128,
        -128,
        -128,
        127,
        -128,
        -128,
        -128,
        -128,
        127,
        127,
        -128,
        127,
        -128,
        25,
        -128,
        -128,
        127,
        127,
        -128,
        -128,
        127,
        -128,
        127,
        -128,
        -128,
        127,
        127,
        -128,
        -128,
        127,
        -128,
        -128,
        -128,
        -128,
        -128,
        -128,
        -128,
        127,
        127,
        -128,
        127,
        -128,
        -128,
        -128,
        -128,
        -128,
        -128,
        -128,
        -128,
        -128,
        127,
        -128,
        -128,
        127,
        127,
        -128,
        -128,
        -128,
        127,
        127,
        -128,
        -128,
        -128,
        127,
        -128,
        -128,
        -128,
        -128,
        -128,
        127,
        127
      ],
      "max_error": 128,
      "mean_error": 114.94732666015625,
      "sample_count": 32768,
      "fix_hint": "Simulation completed but values disagreed. max_error=128 across 32768 samples. See first_mismatch_* and expected/got for raw evidence.",
      "verilator_stderr": "Simulation completed but values disagreed. max_error=128 across 32768 samples. See first_mismatch_* and expected/got for raw evidence.",
      "status_class": "sim_completed_mismatch",
      "outputs_expected": 512,
      "outputs_received": 512,
      "missing_index_start": -1,
      "missing_index_end": -1,
      "last_valid_out_cycle": 16829220,
      "simulation_end_cycle": 16829221,
      "output_gap_histogram": [
        0,
        0,
        0,
        0
      ],
      "first_mismatch_index": 0,
      "first_mismatch_expected": -28,
      "first_mismatch_got": -128,
      "first_mismatch_vector_index": 0,
      "first_mismatch_output_index": 0,
      "first_mismatch_channel_index": 0,
      "exact_match_count": 1,
      "mismatch_count": 32767,
      "signed_error_sum": -1605712,
      "positive_error_count": 9122,
      "negative_error_count": 23645,
      "first_valid_in_cycle": 7,
      "first_valid_out_cycle": 32909,
      "per_vector": [
        {
          "vector_idx": 0,
          "outputs_received": 64,
          "exact_match_count": 0,
          "mismatch_count": 4096,
          "max_error": 128,
          "mean_error": 114.689208984375,
          "actual_cycles": 32902,
          "first_mismatch_output_index": 0
        },
        {
          "vector_idx": 1,
          "outputs_received": 64,
          "exact_match_count": 1,
          "mismatch_count": 4095,
          "max_error": 128,
          "mean_error": 114.83544921875,
          "actual_cycles": 32902,
          "first_mismatch_output_index": 0
        },
        {
          "vector_idx": 2,
          "outputs_received": 64,
          "exact_match_count": 0,
          "mismatch_count": 4096,
          "max_error": 128,
          "mean_error": 115.834228515625,
          "actual_cycles": 32902,
          "first_mismatch_output_index": 0
        },
        {
          "vector_idx": 3,
          "outputs_received": 64,
          "exact_match_count": 0,
          "mismatch_count": 4096,
          "max_error": 128,
          "mean_error": 114.380126953125,
          "actual_cycles": 32902,
          "first_mismatch_output_index": 0
        },
        {
          "vector_idx": 4,
          "outputs_received": 64,
          "exact_match_count": 0,
          "mismatch_count": 4096,
          "max_error": 128,
          "mean_error": 114.030029296875,
          "actual_cycles": 32902,
          "first_mismatch_output_index": 0
        },
        {
          "vector_idx": 5,
          "outputs_received": 64,
          "exact_match_count": 0,
          "mismatch_count": 4096,
          "max_error": 128,
          "mean_error": 116.417724609375,
          "actual_cycles": 32902,
          "first_mismatch_output_index": 0
        },
        {
          "vector_idx": 6,
          "outputs_received": 64,
          "exact_match_count": 0,
          "mismatch_count": 4096,
          "max_error": 128,
          "mean_error": 113.05322265625,
          "actual_cycles": 32902,
          "first_mismatch_output_index": 0
        },
        {
          "vector_idx": 7,
          "outputs_received": 64,
          "exact_match_count": 0,
          "mismatch_count": 4096,
          "max_error": 128,
          "mean_error": 116.338623046875,
          "actual_cycles": 32902,
          "first_mismatch_output_index": 0
        }
      ],
      "failure_category": "code_bug",
      "classifier_reason": "Simulation completed with correct cycle count (32902 == 32902) and all 512 outputs received. The output values are almost entirely saturated at ±127/−128 (only 1 exact match out of 32768, mean_error=114.9), which is the INT8 saturation signature of a requantization scale bug — the accumulated MAC sum is being clipped before proper scaling, or the scale/shift constants are wrong (per-OC scale_factor present but may not be applied). This is the same class as the historical relu_rescale and stale scale.mem bugs in this project. No resource overflows, no bus-width violations, no toolchain errors. A retry with corrected requantization arithmetic can fix this."
    }
  }
}
